{"learner":{"attributes":{"scikit_learn":"{\"_estimator_type\": \"regressor\"}"},"feature_names":["hour","dayofweek","dayofyear","month","quarter","year","is_holiday","is_ramadan","is_kurban","forecast_temp","temp_squared","lag_48","lag_72","lag_168","roll_mean_1d","roll_std_1d","roll_mean_1w","roll_std_1w"],"feature_types":["int","int","int","int","int","int","int","int","int","float","float","float","float","float","float","float","float","float"],"gradient_booster":{"model":{"gbtree_model_param":{"num_parallel_tree":"1","num_trees":"600"},"iteration_indptr":[0,1,2,3,4,5,6,7,8,9,10,11,12,13,14,15,16,17,18,19,20,21,22,23,24,25,26,27,28,29,30,31,32,33,34,35,36,37,38,39,40,41,42,43,44,45,46,47,48,49,50,51,52,53,54,55,56,57,58,59,60,61,62,63,64,65,66,67,68,69,70,71,72,73,74,75,76,77,78,79,80,81,82,83,84,85,86,87,88,89,90,91,92,93,94,95,96,97,98,99,100,101,102,103,104,105,106,107,108,109,110,111,112,113,114,115,116,117,118,119,120,121,122,123,124,125,126,127,128,129,130,131,132,133,134,135,136,137,138,139,140,141,142,143,144,145,146,147,148,149,150,151,152,153,154,155,156,157,158,159,160,161,162,163,164,165,166,167,168,169,170,171,172,173,174,175,176,177,178,179,180,181,182,183,184,185,186,187,188,189,190,191,192,193,194,195,196,197,198,199,200,201,202,203,204,205,206,207,208,209,210,211,212,213,214,215,216,217,218,219,220,221,222,223,224,225,226,227,228,229,230,231,232,233,234,235,236,237,238,239,240,241,242,243,244,245,246,247,248,249,250,251,252,253,254,255,256,257,258,259,260,261,262,263,264,265,266,267,268,269,270,271,272,273,274,275,276,277,278,279,280,281,282,283,284,285,286,287,288,289,290,291,292,293,294,295,296,297,298,299,300,301,302,303,304,305,306,307,308,309,310,311,312,313,314,315,316,317,318,319,320,321,322,323,324,325,326,327,328,329,330,331,332,333,334,335,336,337,338,339,340,341,342,343,344,345,346,347,348,349,350,351,352,353,354,355,356,357,358,359,360,361,362,363,364,365,366,367,368,369,370,371,372,373,374,375,376,377,378,379,380,381,382,383,384,385,386,387,388,389,390,391,392,393,394,395,396,397,398,399,400,401,402,403,404,405,406,407,408,409,410,411,412,413,414,415,416,417,418,419,420,421,422,423,424,425,426,427,428,429,430,431,432,433,434,435,436,437,438,439,440,441,442,443,444,445,446,447,448,449,450,451,452,453,454,455,456,457,458,459,460,461,462,463,464,465,466,467,468,469,470,471,472,473,474,475,476,477,478,479,480,481,482,483,484,485,486,487,488,489,490,491,492,493,494,495,496,497,498,499,500,501,502,503,504,505,506,507,508,509,510,511,512,513,514,515,516,517,518,519,520,521,522,523,524,525,526,527,528,529,530,531,532,533,534,535,536,537,538,539,540,541,542,543,544,545,546,547,548,549,550,551,552,553,554,555,556,557,558,559,560,561,562,563,564,565,566,567,568,569,570,571,572,573,574,575,576,577,578,579,580,581,582,583,584,585,586,587,588,589,590,591,592,593,594,595,596,597,598,599,600],"tree_info":[0,0,0,0,0,0,0,0,0,0,0,0,0,0,0,0,0,0,0,0,0,0,0,0,0,0,0,0,0,0,0,0,0,0,0,0,0,0,0,0,0,0,0,0,0,0,0,0,0,0,0,0,0,0,0,0,0,0,0,0,0,0,0,0,0,0,0,0,0,0,0,0,0,0,0,0,0,0,0,0,0,0,0,0,0,0,0,0,0,0,0,0,0,0,0,0,0,0,0,0,0,0,0,0,0,0,0,0,0,0,0,0,0,0,0,0,0,0,0,0,0,0,0,0,0,0,0,0,0,0,0,0,0,0,0,0,0,0,0,0,0,0,0,0,0,0,0,0,0,0,0,0,0,0,0,0,0,0,0,0,0,0,0,0,0,0,0,0,0,0,0,0,0,0,0,0,0,0,0,0,0,0,0,0,0,0,0,0,0,0,0,0,0,0,0,0,0,0,0,0,0,0,0,0,0,0,0,0,0,0,0,0,0,0,0,0,0,0,0,0,0,0,0,0,0,0,0,0,0,0,0,0,0,0,0,0,0,0,0,0,0,0,0,0,0,0,0,0,0,0,0,0,0,0,0,0,0,0,0,0,0,0,0,0,0,0,0,0,0,0,0,0,0,0,0,0,0,0,0,0,0,0,0,0,0,0,0,0,0,0,0,0,0,0,0,0,0,0,0,0,0,0,0,0,0,0,0,0,0,0,0,0,0,0,0,0,0,0,0,0,0,0,0,0,0,0,0,0,0,0,0,0,0,0,0,0,0,0,0,0,0,0,0,0,0,0,0,0,0,0,0,0,0,0,0,0,0,0,0,0,0,0,0,0,0,0,0,0,0,0,0,0,0,0,0,0,0,0,0,0,0,0,0,0,0,0,0,0,0,0,0,0,0,0,0,0,0,0,0,0,0,0,0,0,0,0,0,0,0,0,0,0,0,0,0,0,0,0,0,0,0,0,0,0,0,0,0,0,0,0,0,0,0,0,0,0,0,0,0,0,0,0,0,0,0,0,0,0,0,0,0,0,0,0,0,0,0,0,0,0,0,0,0,0,0,0,0,0,0,0,0,0,0,0,0,0,0,0,0,0,0,0,0,0,0,0,0,0,0,0,0,0,0,0,0,0,0,0,0,0,0,0,0,0,0,0,0,0,0,0,0,0,0,0,0,0,0,0,0,0,0,0,0,0,0,0,0,0,0,0,0,0,0,0,0,0,0,0,0,0,0,0,0,0,0,0,0,0,0,0,0,0,0,0,0,0,0,0,0,0,0,0,0,0,0,0,0,0,0,0,0,0,0,0,0,0,0,0,0,0,0,0,0,0,0,0,0,0,0,0,0,0,0,0,0,0,0,0,0,0],"trees":[{"base_weights":[-1.3665476E1,-4.888097E3,4.383116E3,-6.617402E3,-2.2563467E3,2.522535E3,9.695051E3,-6.9371367E3,-6.695507E1,-1.9937076E3,-8.145098E3,2.810011E3,-5.7644683E3,8.0693115E3,1.2841202E4,-7.8364604E3,-5.4785283E3,4.374233E3,-3.889137E3,-3.1366838E3,-1.1036626E3,-1.2429689E4,-6.6771562E3,1.3427303E3,4.2096777E3,-7.107928E3,-1.2024554E0,8.295847E3,-1.3342368E3,1.1632344E4,1.5257165E4,-7.5804956E3,-1.2860343E4,-1.0723528E3,-5.8261157E3,2.8948303E3,7.7610186E3,-5.0947876E3,3.7420195E3,-3.1649502E3,2.974972E2,-1.687782E3,-6.284058E2,-1.7920604E2,-3.9690262E2,-7.764468E3,-3.600986E3,5.802192E2,1.9968505E3,3.472165E3,5.1692314E3,-8.466675E3,-4.8325537E3,-2.3807683E3,3.6531738E3,6.6673115E3,9.060229E3,-4.554345E3,4.0439524E3,1.9008008E3,1.1871377E4,1.0288815E4,1.5686102E4,-2.5916312E2,-1.9128403E2,-4.5486484E2,-3.5710574E2,-7.686574E1,6.9745164E0,-2.1286545E2,-1.5108876E2,5.6003723E1,1.7557214E2,1.7139604E2,2.5310411E2,-1.9003706E2,-1.3210928E2,1.9260538E2,-1.091625E1,-1.11485245E2,-7.636074E1,-6.936734E1,-3.7577126E1,-3.3570156E1,-7.9889793E0,-2.8684735E2,-1.7958429E2,-2.5519903E1,-1.601601E2,1.39335165E1,6.013667E1,4.8096745E1,7.9213776E1,9.299897E1,1.2957652E2,1.3505763E2,1.826879E2,-3.2014392E2,-2.0555145E2,-8.784397E1,-2.6473685E2,-9.575999E1,-3.2301746E1,4.3406563E1,1.8262776E2,2.2590617E2,1.7395471E2,3.0477863E2,2.5045476E2,-1.625102E2,-8.6113914E1,-5.6494923E0,1.2734664E2,-8.48513E1,1.4415645E2,3.7687454E2,3.0182047E2,3.3372076E2,1.9363141E2,4.232529E2,4.9184717E2],"categories":[],"categories_nodes":[],"categories_segments":[],"categories_sizes":[],"default_left":[0,0,0,0,0,0,0,0,0,0,0,0,0,0,0,0,0,0,0,0,0,0,0,0,0,0,0,0,0,0,0,0,0,0,0,0,0,0,0,0,0,0,0,0,0,0,0,0,0,0,0,0,0,0,0,0,0,0,0,0,0,0,0,0,0,0,0,0,0,0,0,0,0,0,0,0,0,0,0,0,0,0,0,0,0,0,0,0,0,0,0,0,0,0,0,0,0,0,0,0,0,0,0,0,0,0,0,0,0,0,0,0,0,0,0,0,0,0,0,0,0],"id":0,"left_children":[1,3,5,7,9,11,13,15,17,19,21,23,25,27,29,31,33,35,37,39,41,43,45,47,49,51,53,55,57,59,61,63,65,67,69,71,73,75,77,79,-1,81,83,-1,-1,85,87,89,91,93,95,97,99,101,103,105,107,109,111,113,115,117,119,-1,-1,-1,-1,-1,-1,-1,-1,-1,-1,-1,-1,-1,-1,-1,-1,-1,-1,-1,-1,-1,-1,-1,-1,-1,-1,-1,-1,-1,-1,-1,-1,-1,-1,-1,-1,-1,-1,-1,-1,-1,-1,-1,-1,-1,-1,-1,-1,-1,-1,-1,-1,-1,-1,-1,-1,-1,-1],"loss_changes":[5.986119E11,6.026897E10,1.4511158E11,1.674009E10,8.1096806E9,2.592863E10,1.9378733E10,9.954001E9,6.348697E9,5.114579E9,1.3258598E9,2.1584929E10,2.8260823E9,5.366481E9,3.6075766E9,5.9618755E9,4.450509E9,8.4433536E8,1.8683674E9,8.438538E8,7.845663E8,2.1035008E8,5.3730355E8,2.5595453E9,3.7893816E9,8.742144E8,6.174054E8,2.9956178E9,1.0575186E9,1.996546E9,7.52853E8,5.662507E9,3.1946752E8,4.1661085E8,2.6682819E9,3.600162E8,2.3760896E7,1.2120013E8,3.1023088E8,7.4123264E8,0E0,3.4198374E8,2.771902E8,0E0,0E0,3.3904845E8,2.1530138E8,3.9019635E8,6.957476E8,9.466143E8,1.4072873E9,5.820406E8,8.332393E8,4.205197E7,1.4158077E8,5.471027E8,1.2199608E9,3.965024E7,2.0358912E7,3.157717E8,9.3352755E8,4.6695936E7,2.0815872E8,0E0,0E0,0E0,0E0,0E0,0E0,0E0,0E0,0E0,0E0,0E0,0E0,0E0,0E0,0E0,0E0,0E0,0E0,0E0,0E0,0E0,0E0,0E0,0E0,0E0,0E0,0E0,0E0,0E0,0E0,0E0,0E0,0E0,0E0,0E0,0E0,0E0,0E0,0E0,0E0,0E0,0E0,0E0,0E0,0E0,0E0,0E0,0E0,0E0,0E0,0E0,0E0,0E0,0E0,0E0,0E0,0E0,0E0],"parents":[2147483647,0,0,1,1,2,2,3,3,4,4,5,5,6,6,7,7,8,8,9,9,10,10,11,11,12,12,13,13,14,14,15,15,16,16,17,17,18,18,19,19,20,20,21,21,22,22,23,23,24,24,25,25,26,26,27,27,28,28,29,29,30,30,31,31,32,32,33,33,34,34,35,35,36,36,37,37,38,38,39,39,41,41,42,42,45,45,46,46,47,47,48,48,49,49,50,50,51,51,52,52,53,53,54,54,55,55,56,56,57,57,58,58,59,59,60,60,61,61,62,62],"right_children":[2,4,6,8,10,12,14,16,18,20,22,24,26,28,30,32,34,36,38,40,42,44,46,48,50,52,54,56,58,60,62,64,66,68,70,72,74,76,78,80,-1,82,84,-1,-1,86,88,90,92,94,96,98,100,102,104,106,108,110,112,114,116,118,120,-1,-1,-1,-1,-1,-1,-1,-1,-1,-1,-1,-1,-1,-1,-1,-1,-1,-1,-1,-1,-1,-1,-1,-1,-1,-1,-1,-1,-1,-1,-1,-1,-1,-1,-1,-1,-1,-1,-1,-1,-1,-1,-1,-1,-1,-1,-1,-1,-1,-1,-1,-1,-1,-1,-1,-1,-1,-1],"split_conditions":[3.799643E4,3.405058E4,4.518996E4,2.02E1,1E0,1E0,4.939162E4,3.277119E4,3.4217766E4,3.587049E4,1.12E2,4.092875E4,1.94E2,1E0,5.285021E4,1E0,3.2685336E4,2.65E1,5.5417905E3,2.97E1,3.688056E4,3E0,1.94E2,3.937915E4,4.297291E4,3.4883215E4,3.959081E4,4.0715285E4,1.94E2,3.2151205E4,4.5265273E4,3.083897E4,4.199727E3,1.12E1,3.165402E4,4.050642E4,1.76E2,3.7044402E4,5.0985967E3,3.587406E4,2.974972E2,3.646521E4,3.742075E4,-1.7920604E2,-3.9690262E2,3.671491E4,1.97E2,2.23E1,4.056561E4,4.25197E4,4.9904243E3,1.74E1,1.41E2,3.764527E4,4.494805E4,5.476E1,2.09E2,7.4256807E3,1.91E1,1.72E2,2.37E2,1E0,2.83E1,-2.5916312E2,-1.9128403E2,-4.5486484E2,-3.5710574E2,-7.686574E1,6.9745164E0,-2.1286545E2,-1.5108876E2,5.6003723E1,1.7557214E2,1.7139604E2,2.5310411E2,-1.9003706E2,-1.3210928E2,1.9260538E2,-1.091625E1,-1.11485245E2,-7.636074E1,-6.936734E1,-3.7577126E1,-3.3570156E1,-7.9889793E0,-2.8684735E2,-1.7958429E2,-2.5519903E1,-1.601601E2,1.39335165E1,6.013667E1,4.8096745E1,7.9213776E1,9.299897E1,1.2957652E2,1.3505763E2,1.826879E2,-3.2014392E2,-2.0555145E2,-8.784397E1,-2.6473685E2,-9.575999E1,-3.2301746E1,4.3406563E1,1.8262776E2,2.2590617E2,1.7395471E2,3.0477863E2,2.5045476E2,-1.625102E2,-8.6113914E1,-5.6494923E0,1.2734664E2,-8.48513E1,1.4415645E2,3.7687454E2,3.0182047E2,3.3372076E2,1.9363141E2,4.232529E2,4.9184717E2],"split_indices":[13,13,13,9,6,6,13,12,16,13,2,13,2,6,13,6,16,9,17,9,13,2,2,13,13,14,12,16,2,14,16,13,17,9,13,12,2,14,15,12,0,12,12,0,0,12,2,9,12,12,15,9,2,12,12,10,2,17,9,2,2,6,9,0,0,0,0,0,0,0,0,0,0,0,0,0,0,0,0,0,0,0,0,0,0,0,0,0,0,0,0,0,0,0,0,0,0,0,0,0,0,0,0,0,0,0,0,0,0,0,0,0,0,0,0,0,0,0,0,0,0],"split_type":[0,0,0,0,0,0,0,0,0,0,0,0,0,0,0,0,0,0,0,0,0,0,0,0,0,0,0,0,0,0,0,0,0,0,0,0,0,0,0,0,0,0,0,0,0,0,0,0,0,0,0,0,0,0,0,0,0,0,0,0,0,0,0,0,0,0,0,0,0,0,0,0,0,0,0,0,0,0,0,0,0,0,0,0,0,0,0,0,0,0,0,0,0,0,0,0,0,0,0,0,0,0,0,0,0,0,0,0,0,0,0,0,0,0,0,0,0,0,0,0,0],"sum_hessian":[2.7929E4,1.3245E4,1.4684E4,7.992E3,5.253E3,1.0876E4,3.808E3,7.62E3,3.72E2,5.03E3,2.23E2,1.0512E4,3.64E2,2.513E3,1.295E3,4.711E3,2.909E3,1.72E2,2E2,2.201E3,2.829E3,5.5E1,1.68E2,5.133E3,5.379E3,2.95E2,6.9E1,2.454E3,5.9E1,8.67E2,4.28E2,4.485E3,2.26E2,2.13E2,2.696E3,1.21E2,5.1E1,1.73E2,2.7E1,2.197E3,4E0,1.268E3,1.561E3,7E0,4.8E1,1.23E2,4.5E1,2.371E3,2.762E3,3.044E3,2.335E3,1.83E2,1.12E2,4.2E1,2.7E1,7.87E2,1.667E3,3.7E1,2.2E1,2.1E1,8.46E2,3.6E1,3.92E2,2.384E3,2.101E3,6.2E1,1.64E2,9.9E1,1.14E2,1.031E3,1.665E3,9.1E1,3E1,1.5E1,3.6E1,5.9E1,1.14E2,1.6E1,1.1E1,1.16E3,1.037E3,5.19E2,7.49E2,6.62E2,8.99E2,5.9E1,6.4E1,1.8E1,2.7E1,2.194E3,1.77E2,1.716E3,1.046E3,2.118E3,9.26E2,1.357E3,9.78E2,7.5E1,1.08E2,7.7E1,3.5E1,2.5E1,1.7E1,1.5E1,1.2E1,3.91E2,3.96E2,6.5E2,1.017E3,2.3E1,1.4E1,1E0,2.1E1,8E0,1.3E1,6.08E2,2.38E2,2.8E1,8E0,1.28E2,2.64E2],"tree_param":{"num_deleted":"0","num_feature":"18","num_nodes":"121","size_leaf_vector":"1"}},{"base_weights":[1.5891048E1,-3.263823E3,4.375396E3,-5.813272E3,-1.8703456E2,6.2519556E3,7.2339655E2,-7.121252E3,-2.860911E3,9.5817725E2,-4.820718E3,4.4088315E3,1.0437449E4,-8.854986E2,4.8726865E3,-7.9164365E3,-5.9696523E3,-3.7476167E3,-1.1570535E3,-1.0694054E1,4.450449E3,-3.1224746E3,-6.2134966E3,3.5551104E3,8.065619E3,9.065756E3,1.3599864E4,1.1035038E3,-2.9346194E3,6.9914644E3,2.3928281E3,-1.2200731E4,-7.722973E3,-5.5014526E3,-8.287072E3,-3.2826428E3,-6.0949146E3,-5.7923706E2,-3.7228252E3,-9.581469E2,1.214466E3,2.1788042E3,6.0098457E3,-8.897704E3,-2.5797334E3,-9.442751E3,-5.3885195E3,2.7957778E3,5.0067583E3,6.8829297E3,1.1003085E4,8.520689E3,1.1783989E4,1.2391526E4,4.6705115E2,-2.4934288E1,2.403697E3,-4.0872812E3,-5.8186444E2,5.739705E3,9.842868E3,-2.1292712E2,4.294098E3,-3.9976562E2,-3.1470706E2,-2.9647726E2,-2.2170413E2,-2.2933551E2,-1.496272E2,-2.315278E2,-2.9574692E2,-1.6592041E2,-8.326649E1,-1.649254E2,-2.6521625E2,-9.1952675E1,-1.2473603E0,-8.858727E1,-1.8837122E2,-1.3123375E2,-1.944279E1,7.3345726E1,2.316438E1,7.250744E1,-1.7615137E2,1.432774E2,2.366599E2,-3.2420023E2,-2.1563768E2,-1.20462E2,-6.1938362E1,-2.8951953E2,-1.6202274E2,-1.9698465E2,-1.3872623E2,7.35842E1,1.4252963E2,1.3483414E2,1.7552812E2,1.8080212E2,2.4635086E2,2.3604492E2,3.754492E2,-8.154369E1,2.57848E2,3.1566168E2,4.0324045E2,4.5731332E2,3.596002E2,-1.776097E1,1.869081E1,7.478674E1,-2.4539897E2,1.797172E1,-1.3724364E2,-5.213918E1,3.090947E1,1.1501285E2,1.8955309E2,2.5079004E2,3.3753973E2,-7.011902E1,3.0721031E1,6.245113E1,1.579188E2],"categories":[],"categories_nodes":[],"categories_segments":[],"categories_sizes":[],"default_left":[0,0,0,0,0,0,0,0,0,0,0,0,0,0,0,0,0,0,0,0,0,0,0,0,0,0,0,0,0,0,0,0,0,0,0,0,0,0,0,0,0,0,0,0,0,0,0,0,0,0,0,0,0,0,0,0,0,0,0,0,0,0,0,0,0,0,0,0,0,0,0,0,0,0,0,0,0,0,0,0,0,0,0,0,0,0,0,0,0,0,0,0,0,0,0,0,0,0,0,0,0,0,0,0,0,0,0,0,0,0,0,0,0,0,0,0,0,0,0,0,0,0,0,0,0],"id":1,"left_children":[1,3,5,7,9,11,13,15,17,19,21,23,25,27,29,31,33,35,37,39,41,43,45,47,49,51,53,55,57,59,61,63,65,67,69,71,73,75,77,79,81,83,85,87,89,91,93,95,97,99,101,103,105,107,-1,109,111,113,115,117,119,121,123,-1,-1,-1,-1,-1,-1,-1,-1,-1,-1,-1,-1,-1,-1,-1,-1,-1,-1,-1,-1,-1,-1,-1,-1,-1,-1,-1,-1,-1,-1,-1,-1,-1,-1,-1,-1,-1,-1,-1,-1,-1,-1,-1,-1,-1,-1,-1,-1,-1,-1,-1,-1,-1,-1,-1,-1,-1,-1,-1,-1,-1,-1],"loss_changes":[3.9804E11,1.2461836E11,8.1904845E10,3.352943E10,3.8211764E10,6.0859056E10,2.7094604E10,5.465473E9,4.0280412E9,1.9536732E10,3.3558487E9,1.7088586E10,1.0343973E10,1.1924679E10,5.9416084E9,2.8548137E9,2.6267976E9,1.8954568E9,1.3543726E9,5.249056E9,4.4290703E9,1.9987697E9,2.0350771E9,4.887855E9,3.5269222E9,2.3976018E9,1.5387197E9,2.1788334E9,3.9055155E9,2.124329E9,2.5969382E9,1.5264973E8,2.375893E9,2.221695E9,2.9255066E8,1.6569764E9,4.25429E8,9.9960384E8,3.120942E8,2.6982292E9,1.0713275E9,9.9565005E8,1.6848445E9,1.0183834E8,4.2877952E8,8.065126E7,5.330862E8,1.9477852E9,6.336389E8,7.9466906E8,1.3044654E9,1.1982029E9,4.4208947E8,3.438428E8,0E0,2.9286506E8,6.7175526E8,2.211969E9,8.8712166E8,4.467712E8,2.924114E8,5.857581E8,6.391941E8,0E0,0E0,0E0,0E0,0E0,0E0,0E0,0E0,0E0,0E0,0E0,0E0,0E0,0E0,0E0,0E0,0E0,0E0,0E0,0E0,0E0,0E0,0E0,0E0,0E0,0E0,0E0,0E0,0E0,0E0,0E0,0E0,0E0,0E0,0E0,0E0,0E0,0E0,0E0,0E0,0E0,0E0,0E0,0E0,0E0,0E0,0E0,0E0,0E0,0E0,0E0,0E0,0E0,0E0,0E0,0E0,0E0,0E0,0E0,0E0,0E0,0E0],"parents":[2147483647,0,0,1,1,2,2,3,3,4,4,5,5,6,6,7,7,8,8,9,9,10,10,11,11,12,12,13,13,14,14,15,15,16,16,17,17,18,18,19,19,20,20,21,21,22,22,23,23,24,24,25,25,26,26,27,27,28,28,29,29,30,30,31,31,32,32,33,33,34,34,35,35,36,36,37,37,38,38,39,39,40,40,41,41,42,42,43,43,44,44,45,45,46,46,47,47,48,48,49,49,50,50,51,51,52,52,53,53,55,55,56,56,57,57,58,58,59,59,60,60,61,61,62,62],"right_children":[2,4,6,8,10,12,14,16,18,20,22,24,26,28,30,32,34,36,38,40,42,44,46,48,50,52,54,56,58,60,62,64,66,68,70,72,74,76,78,80,82,84,86,88,90,92,94,96,98,100,102,104,106,108,-1,110,112,114,116,118,120,122,124,-1,-1,-1,-1,-1,-1,-1,-1,-1,-1,-1,-1,-1,-1,-1,-1,-1,-1,-1,-1,-1,-1,-1,-1,-1,-1,-1,-1,-1,-1,-1,-1,-1,-1,-1,-1,-1,-1,-1,-1,-1,-1,-1,-1,-1,-1,-1,-1,-1,-1,-1,-1,-1,-1,-1,-1,-1,-1,-1,-1,-1,-1],"split_conditions":[3.954727E4,8E0,5E0,3.380029E4,5E0,4.522751E4,4.621585E4,3.150092E4,3.655117E4,4.007657E4,6E0,4.42356E4,4.970226E4,6E0,6E0,2.498113E4,6E0,6E0,6E0,3.757348E4,1E0,3.348009E4,1.2E1,4.229824E4,6.1504E2,4.912603E4,5.285021E4,4.237757E4,1.8E1,5.075639E4,4.2935367E4,2.335348E4,1E0,1E0,6E0,1E0,7E0,1E0,7E0,2.841161E4,3.517794E4,1E0,4.215171E4,1.14E2,3.73349E4,3.8809E2,1.8E1,4.244864E4,4.368288E4,4.590537E4,4.2935367E4,3E0,4.5879695E4,2E0,4.6705115E2,4.101118E4,1E0,7E0,4.260595E4,1.68E2,5.285021E4,1.3E1,1.3E1,-3.9976562E2,-3.1470706E2,-2.9647726E2,-2.2170413E2,-2.2933551E2,-1.496272E2,-2.315278E2,-2.9574692E2,-1.6592041E2,-8.326649E1,-1.649254E2,-2.6521625E2,-9.1952675E1,-1.2473603E0,-8.858727E1,-1.8837122E2,-1.3123375E2,-1.944279E1,7.3345726E1,2.316438E1,7.250744E1,-1.7615137E2,1.432774E2,2.366599E2,-3.2420023E2,-2.1563768E2,-1.20462E2,-6.1938362E1,-2.8951953E2,-1.6202274E2,-1.9698465E2,-1.3872623E2,7.35842E1,1.4252963E2,1.3483414E2,1.7552812E2,1.8080212E2,2.4635086E2,2.3604492E2,3.754492E2,-8.154369E1,2.57848E2,3.1566168E2,4.0324045E2,4.5731332E2,3.596002E2,-1.776097E1,1.869081E1,7.478674E1,-2.4539897E2,1.797172E1,-1.3724364E2,-5.213918E1,3.090947E1,1.1501285E2,1.8955309E2,2.5079004E2,3.3753973E2,-7.011902E1,3.0721031E1,6.245113E1,1.579188E2],"split_indices":[11,0,1,11,1,11,11,11,11,12,1,12,11,1,1,11,1,1,1,12,1,11,0,11,10,12,11,11,0,12,16,11,1,1,0,1,0,1,0,11,11,8,12,2,11,10,0,12,11,12,16,2,16,1,0,11,8,0,11,2,11,0,0,0,0,0,0,0,0,0,0,0,0,0,0,0,0,0,0,0,0,0,0,0,0,0,0,0,0,0,0,0,0,0,0,0,0,0,0,0,0,0,0,0,0,0,0,0,0,0,0,0,0,0,0,0,0,0,0,0,0,0,0,0,0],"split_type":[0,0,0,0,0,0,0,0,0,0,0,0,0,0,0,0,0,0,0,0,0,0,0,0,0,0,0,0,0,0,0,0,0,0,0,0,0,0,0,0,0,0,0,0,0,0,0,0,0,0,0,0,0,0,0,0,0,0,0,0,0,0,0,0,0,0,0,0,0,0,0,0,0,0,0,0,0,0,0,0,0,0,0,0,0,0,0,0,0,0,0,0,0,0,0,0,0,0,0,0,0,0,0,0,0,0,0,0,0,0,0,0,0,0,0,0,0,0,0,0,0,0,0,0,0],"sum_hessian":[2.7837E4,1.5886E4,1.1951E4,8.687E3,7.199E3,7.894E3,4.057E3,6.019E3,2.668E3,5.773E3,1.426E3,5.482E3,2.412E3,2.924E3,1.133E3,3.557E3,2.462E3,1.754E3,9.14E2,4.52E3,1.253E3,6.44E2,7.82E2,4.446E3,1.036E3,1.685E3,7.27E2,1.484E3,1.44E3,6.1E2,5.23E2,1.51E2,3.406E3,2.051E3,4.11E2,1.466E3,2.88E2,7.47E2,1.67E2,2.549E3,1.971E3,5.11E2,7.42E2,5.4E1,5.9E2,1.57E2,6.25E2,2.921E3,1.525E3,7.41E2,2.95E2,1.407E3,2.78E2,4.55E2,2.72E2,7.95E2,6.89E2,9.66E2,4.74E2,4.26E2,1.84E2,2.21E2,3.02E2,8.7E1,6.4E1,4.51E2,2.955E3,3.94E2,1.657E3,3.06E2,1.05E2,2.68E2,1.198E3,2.39E2,4.9E1,1.32E2,6.15E2,1.3E2,3.7E1,2.11E2,2.338E3,5.2E2,1.451E3,4.97E2,1.4E1,4.5E2,2.92E2,2.3E1,3.1E1,1.54E2,4.36E2,1.48E2,9E0,2.43E2,3.82E2,2.487E3,4.34E2,9.53E2,5.72E2,4.54E2,2.87E2,9.8E1,1.97E2,9E0,1.398E3,1.62E2,1.16E2,5.2E1,4.03E2,4.24E2,3.71E2,6.84E2,5E0,9.1E1,8.75E2,2.76E2,1.98E2,1.01E2,3.25E2,9.3E1,9.1E1,8.1E1,1.4E2,9.3E1,2.09E2],"tree_param":{"num_deleted":"0","num_feature":"18","num_nodes":"125","size_leaf_vector":"1"}},{"base_weights":[2.75051E1,-4.325267E3,4.4245693E3,-6.221013E3,-1.8405906E3,2.5720461E3,9.078001E3,-6.8648013E3,-2.8254202E3,-1.5755459E3,-7.8424604E3,2.839749E3,-5.283525E3,7.5247817E3,1.2140108E4,-7.8465767E3,-5.573011E3,1.821682E3,-5.1732114E3,-2.769367E3,-6.113012E2,-1.1209798E4,-6.219808E3,1.7110063E3,4.20718E3,-7.276626E3,-2.466256E3,7.7462617E3,-1.5874509E3,1.1026985E4,1.4311682E4,-7.6449717E3,-1.237145E4,-5.340084E3,-1.1239688E4,-5.307061E2,5.298643E3,-5.820203E3,-3.5164902E3,-3.4153318E3,-2.1350862E3,-1.2983673E3,-2.3726465E2,-3.7038083E2,-8.437995E3,-3.8481424E2,-5.61041E3,1.0747501E3,2.453693E3,3.7248987E3,5.301983E3,-3.745082E2,-6.662699E3,-1.0929431E3,-2.767678E2,6.091933E3,8.440839E3,1.7194197E3,-4.645801E3,1.132354E4,4.984274E3,9.266423E3,1.4679271E4,-2.3891591E2,-1.6856128E2,-4.4442374E2,-3.478423E2,-1.7555333E2,-1.3815756E2,-1.8775914E2,-3.5146506E2,2.104533E1,-1.1996223E2,2.8278782E1,1.874899E2,-1.6827402E2,-2.6709274E2,-1.1888568E2,-8.241395E0,-1.2240292E2,-9.054513E1,-2.2404337E1,-8.0404816E1,-5.5793472E1,-2.8000664E1,-9.8989784E1,-5.3148093E0,-1.114794E2,-2.729295E2,-9.958736E1,-1.9989511E2,2.29036E1,4.9266403E1,6.554077E1,9.493463E1,9.619912E1,1.2452269E2,1.803253E2,1.3073686E2,-2.1684381E2,-1.1179669E2,-2.1041933E2,-1.00505085E1,7.190456E1,1.884928E2,2.3301941E2,2.867651E2,-7.107441E1,1.1337518E2,-1.6450511E2,-5.407941E1,2.7208987E2,3.4900812E2,-6.946362E1,1.940395E2,3.070887E2,1.8036288E2,4.0002112E2,4.6631293E2],"categories":[],"categories_nodes":[],"categories_segments":[],"categories_sizes":[],"default_left":[0,0,0,0,0,0,0,0,0,0,0,0,0,0,0,0,0,0,0,0,0,0,0,0,0,0,0,0,0,0,0,0,0,0,0,0,0,0,0,0,0,0,0,0,0,0,0,0,0,0,0,0,0,0,0,0,0,0,0,0,0,0,0,0,0,0,0,0,0,0,0,0,0,0,0,0,0,0,0,0,0,0,0,0,0,0,0,0,0,0,0,0,0,0,0,0,0,0,0,0,0,0,0,0,0,0,0,0,0,0,0,0,0,0,0,0,0,0,0],"id":2,"left_children":[1,3,5,7,9,11,13,15,17,19,21,23,25,27,29,31,33,35,37,39,41,43,45,47,49,51,53,55,57,59,61,63,65,67,69,71,73,75,77,79,81,83,85,-1,87,-1,89,91,93,95,97,-1,99,101,-1,103,105,107,109,111,113,115,117,-1,-1,-1,-1,-1,-1,-1,-1,-1,-1,-1,-1,-1,-1,-1,-1,-1,-1,-1,-1,-1,-1,-1,-1,-1,-1,-1,-1,-1,-1,-1,-1,-1,-1,-1,-1,-1,-1,-1,-1,-1,-1,-1,-1,-1,-1,-1,-1,-1,-1,-1,-1,-1,-1,-1,-1],"loss_changes":[5.3309024E11,6.591886E10,1.1942353E11,1.7335583E10,9.626081E9,2.0859527E10,1.8671534E10,8.4193116E9,1.3832933E10,6.6794977E9,1.329066E9,1.4788583E10,1.8181908E9,5.299929E9,3.047424E9,3.361882E9,3.747963E9,3.4871347E9,8.8205926E8,1.05511936E9,8.251369E8,1.5407616E8,6.326712E8,2.4796088E9,2.2686188E9,5.2739686E8,1.261645E9,2.8878602E9,6.451428E8,1.522303E9,6.911181E8,2.3008215E9,1.317929E8,1.0157261E9,1.9449242E8,1.0925151E9,7.066465E8,3.430871E8,3.447488E8,3.264215E8,9.900493E8,2.3023706E8,3.8245104E8,0E0,5.029581E7,0E0,3.68576E8,4.988411E8,4.563753E8,6.514524E8,8.5919334E8,0E0,2.6027418E8,5.1373645E8,0E0,5.2177306E8,1.2804014E9,2.70018E8,6.871187E7,4.8082944E8,4.8069555E8,4.2615296E7,2.7419443E8,0E0,0E0,0E0,0E0,0E0,0E0,0E0,0E0,0E0,0E0,0E0,0E0,0E0,0E0,0E0,0E0,0E0,0E0,0E0,0E0,0E0,0E0,0E0,0E0,0E0,0E0,0E0,0E0,0E0,0E0,0E0,0E0,0E0,0E0,0E0,0E0,0E0,0E0,0E0,0E0,0E0,0E0,0E0,0E0,0E0,0E0,0E0,0E0,0E0,0E0,0E0,0E0,0E0,0E0,0E0,0E0],"parents":[2147483647,0,0,1,1,2,2,3,3,4,4,5,5,6,6,7,7,8,8,9,9,10,10,11,11,12,12,13,13,14,14,15,15,16,16,17,17,18,18,19,19,20,20,21,21,22,22,23,23,24,24,25,25,26,26,27,27,28,28,29,29,30,30,31,31,32,32,33,33,34,34,35,35,36,36,37,37,38,38,39,39,40,40,41,41,42,42,44,44,46,46,47,47,48,48,49,49,50,50,52,52,53,53,55,55,56,56,57,57,58,58,59,59,60,60,61,61,62,62],"right_children":[2,4,6,8,10,12,14,16,18,20,22,24,26,28,30,32,34,36,38,40,42,44,46,48,50,52,54,56,58,60,62,64,66,68,70,72,74,76,78,80,82,84,86,-1,88,-1,90,92,94,96,98,-1,100,102,-1,104,106,108,110,112,114,116,118,-1,-1,-1,-1,-1,-1,-1,-1,-1,-1,-1,-1,-1,-1,-1,-1,-1,-1,-1,-1,-1,-1,-1,-1,-1,-1,-1,-1,-1,-1,-1,-1,-1,-1,-1,-1,-1,-1,-1,-1,-1,-1,-1,-1,-1,-1,-1,-1,-1,-1,-1,-1,-1,-1,-1,-1],"split_conditions":[3.851264E4,3.405058E4,4.505626E4,1E1,1E0,1E0,4.939162E4,3.143132E4,6E0,3.62095E4,3.1433287E4,4.153879E4,3.5712145E4,1E0,5.285021E4,1E0,1E0,1.89E1,4.425839E3,3.580133E4,3.710546E4,4.9613003E3,3.7179663E3,4.007657E4,4.367983E4,4.0276763E3,1E0,4.0635258E4,1E0,1E0,4.5265273E4,5.3227656E3,4.0276763E3,3.283784E4,1E0,4E0,2.9913434E4,1E0,5.586629E3,3.472222E4,5E0,9E0,3.690416E3,-3.7038083E2,3.3140324E4,-3.8481424E2,3.5623184E4,3.989634E4,4.180412E4,4.2671E4,5E0,-3.745082E2,3.408412E4,2E0,-2.767678E2,3.6081265E3,2.5E1,1.91E1,1.8E1,4.2935367E4,3E0,1E0,2.9E1,-2.3891591E2,-1.6856128E2,-4.4442374E2,-3.478423E2,-1.7555333E2,-1.3815756E2,-1.8775914E2,-3.5146506E2,2.104533E1,-1.1996223E2,2.8278782E1,1.874899E2,-1.6827402E2,-2.6709274E2,-1.1888568E2,-8.241395E0,-1.2240292E2,-9.054513E1,-2.2404337E1,-8.0404816E1,-5.5793472E1,-2.8000664E1,-9.8989784E1,-5.3148093E0,-1.114794E2,-2.729295E2,-9.958736E1,-1.9989511E2,2.29036E1,4.9266403E1,6.554077E1,9.493463E1,9.619912E1,1.2452269E2,1.803253E2,1.3073686E2,-2.1684381E2,-1.1179669E2,-2.1041933E2,-1.00505085E1,7.190456E1,1.884928E2,2.3301941E2,2.867651E2,-7.107441E1,1.1337518E2,-1.6450511E2,-5.407941E1,2.7208987E2,3.4900812E2,-6.946362E1,1.940395E2,3.070887E2,1.8036288E2,4.0002112E2,4.6631293E2],"split_indices":[13,13,13,0,6,6,13,13,1,13,14,13,14,6,13,6,6,9,15,12,13,17,17,13,12,17,8,16,8,6,16,17,17,13,0,4,16,6,17,13,1,0,17,0,16,0,16,12,12,13,1,0,14,4,0,15,9,9,0,16,4,6,9,0,0,0,0,0,0,0,0,0,0,0,0,0,0,0,0,0,0,0,0,0,0,0,0,0,0,0,0,0,0,0,0,0,0,0,0,0,0,0,0,0,0,0,0,0,0,0,0,0,0,0,0,0,0,0,0],"split_type":[0,0,0,0,0,0,0,0,0,0,0,0,0,0,0,0,0,0,0,0,0,0,0,0,0,0,0,0,0,0,0,0,0,0,0,0,0,0,0,0,0,0,0,0,0,0,0,0,0,0,0,0,0,0,0,0,0,0,0,0,0,0,0,0,0,0,0,0,0,0,0,0,0,0,0,0,0,0,0,0,0,0,0,0,0,0,0,0,0,0,0,0,0,0,0,0,0,0,0,0,0,0,0,0,0,0,0,0,0,0,0,0,0,0,0,0,0,0,0],"sum_hessian":[2.7851E4,1.3996E4,1.3855E4,7.938E3,6.058E3,9.911E3,3.944E3,6.672E3,1.266E3,5.803E3,2.55E2,9.585E3,3.26E2,2.619E3,1.325E3,3.788E3,2.884E3,4.25E2,8.41E2,2.592E3,3.211E3,8.1E1,1.74E2,5.252E3,4.333E3,1.9E2,1.36E2,2.557E3,6.2E1,8.8E2,4.45E2,3.629E3,1.59E2,2.772E3,1.12E2,2.54E2,1.71E2,6.03E2,2.38E2,1.282E3,1.31E3,1.131E3,2.08E3,5.5E1,2.6E1,1.3E1,1.61E2,2.83E3,2.422E3,3.011E3,1.322E3,1.8E1,1.72E2,1.14E2,2.2E1,7.59E2,1.798E3,3E1,3.2E1,8.38E2,4.2E1,3.2E1,4.13E2,3.133E3,4.96E2,3.4E1,1.25E2,1.63E3,1.142E3,1.1E1,1.01E2,1.88E2,6.6E1,3.1E1,1.4E2,5.67E2,3.6E1,2.09E2,2.9E1,4.76E2,8.06E2,3.7E2,9.4E2,4.44E2,6.87E2,3.9E1,2.041E3,4E0,2.2E1,5.2E1,1.09E2,1.829E3,1.001E3,1.76E3,6.62E2,1.362E3,1.649E3,7.52E2,5.7E2,1.43E2,2.9E1,1.2E1,1.02E2,3.8E1,7.21E2,1.127E3,6.71E2,1E1,2E1,2.4E1,8E0,1.05E2,7.33E2,7E0,3.5E1,2.3E1,9E0,1.68E2,2.45E2],"tree_param":{"num_deleted":"0","num_feature":"18","num_nodes":"119","size_leaf_vector":"1"}},{"base_weights":[-7.646532E0,-4.1661855E3,4.285559E3,-6.1265107E3,-1.8077648E3,2.5408086E3,8.954581E3,-6.7301763E3,-2.818934E3,-1.5401803E3,-7.7510913E3,2.8213416E3,-5.356811E3,7.8072275E3,1.2633381E4,-7.750856E3,-5.6313896E3,-4.0430535E3,2.4312537E3,-2.7336829E3,-5.4448096E2,-1.1643441E4,-6.2137812E3,1.6492982E3,4.1327163E3,-6.3834473E3,-4.252306E2,7.9866123E3,-3.2581746E3,1.1649736E4,1.4238585E4,-7.5590933E3,-1.2067646E4,-5.387812E3,-1.1237204E4,-3.8355646E2,-4.885274E3,7.229067E2,7.254491E3,-3.2889463E3,-2.090621E3,-1.2294658E3,-1.2875859E2,-1.4734158E2,-3.7724762E2,-9.556832E3,-5.2646357E3,1.0511741E3,2.3406553E3,3.5358848E3,4.961323E3,-3.63017E2,-5.855182E3,4.787119E3,-1.8280497E3,6.9095054E3,9.24066E3,2.464602E3,-4.3485347E3,1.1824455E4,6.402244E3,1.4375713E4,2.0715236E2,-2.3697798E2,-1.6320607E2,-4.0284207E2,-3.347295E2,-1.751544E2,-1.3486098E2,-4.0106583E2,-3.053018E2,-2.0503804E2,2.2062876E1,-1.656105E2,-1.0974073E2,-5.753767E1,5.869986E1,2.3040877E2,1.3200102E2,-1.1673292E2,-8.2933075E1,-7.0460175E1,5.1268707E1,-4.033047E1,2.3389933E1,-7.165237E1,-1.7141197E0,-3.0670618E2,-1.6086148E2,-1.2789004E2,-2.8188525E2,2.8161266E1,7.54254E1,6.2403374E1,8.575293E1,9.4326775E1,1.2925743E2,1.3117435E2,1.7673729E2,-1.18172386E2,-2.180711E2,1.5177829E2,2.2818516E1,-8.163982E1,2.3587824E1,1.7611264E2,2.2616705E2,2.4280733E2,3.0080795E2,-7.4410543E0,8.6626656E1,-1.6382321E2,-9.0566055E1,3.716E2,3.0823358E2,-3.0573515E1,2.053944E2,3.9280026E2,4.5633627E2],"categories":[],"categories_nodes":[],"categories_segments":[],"categories_sizes":[],"default_left":[0,0,0,0,0,0,0,0,0,0,0,0,0,0,0,0,0,0,0,0,0,0,0,0,0,0,0,0,0,0,0,0,0,0,0,0,0,0,0,0,0,0,0,0,0,0,0,0,0,0,0,0,0,0,0,0,0,0,0,0,0,0,0,0,0,0,0,0,0,0,0,0,0,0,0,0,0,0,0,0,0,0,0,0,0,0,0,0,0,0,0,0,0,0,0,0,0,0,0,0,0,0,0,0,0,0,0,0,0,0,0,0,0,0,0,0,0,0,0],"id":3,"left_children":[1,3,5,7,9,11,13,15,17,19,21,23,25,27,29,31,33,35,37,39,41,43,45,47,49,51,53,55,57,59,61,63,65,67,69,71,73,75,77,79,81,83,85,-1,-1,87,89,91,93,95,97,-1,99,101,103,105,107,109,111,113,115,117,-1,-1,-1,-1,-1,-1,-1,-1,-1,-1,-1,-1,-1,-1,-1,-1,-1,-1,-1,-1,-1,-1,-1,-1,-1,-1,-1,-1,-1,-1,-1,-1,-1,-1,-1,-1,-1,-1,-1,-1,-1,-1,-1,-1,-1,-1,-1,-1,-1,-1,-1,-1,-1,-1,-1,-1,-1],"loss_changes":[4.9637982E11,6.528339E10,1.1141833E11,1.5379333E10,1.0185335E10,2.2081909E10,1.5607267E10,7.269712E9,7.6706427E9,7.2915354E9,1.5791657E9,1.4777467E10,1.728812E9,5.661344E9,1.2283412E9,2.705064E9,4.232446E9,2.97852E9,1.856942E9,9.8970214E8,9.529451E8,4.2108928E8,5.842954E8,2.0986204E9,2.2271672E9,7.838505E8,4.4747014E8,3.7101404E9,2.9775216E8,4.313088E8,2.3359488E8,2.2902047E9,2.5966592E7,1.1863736E9,1.5782195E8,1.3188164E9,5.924127E8,5.5111974E8,3.791693E7,4.6173184E8,1.2747244E9,2.927991E8,3.3713658E8,0E0,0E0,6.543872E7,6.137938E8,4.4616858E8,3.1188582E8,7.860101E8,1.013547E9,0E0,6.7843994E8,1.039776E7,1.1423432E8,9.4130995E8,1.0805166E9,9.894764E6,4.1192064E7,3.3807565E8,7.291405E7,1.479721E8,0E0,0E0,0E0,0E0,0E0,0E0,0E0,0E0,0E0,0E0,0E0,0E0,0E0,0E0,0E0,0E0,0E0,0E0,0E0,0E0,0E0,0E0,0E0,0E0,0E0,0E0,0E0,0E0,0E0,0E0,0E0,0E0,0E0,0E0,0E0,0E0,0E0,0E0,0E0,0E0,0E0,0E0,0E0,0E0,0E0,0E0,0E0,0E0,0E0,0E0,0E0,0E0,0E0,0E0,0E0,0E0,0E0],"parents":[2147483647,0,0,1,1,2,2,3,3,4,4,5,5,6,6,7,7,8,8,9,9,10,10,11,11,12,12,13,13,14,14,15,15,16,16,17,17,18,18,19,19,20,20,21,21,22,22,23,23,24,24,25,25,26,26,27,27,28,28,29,29,30,30,31,31,32,32,33,33,34,34,35,35,36,36,37,37,38,38,39,39,40,40,41,41,42,42,45,45,46,46,47,47,48,48,49,49,50,50,52,52,53,53,54,54,55,55,56,56,57,57,58,58,59,59,60,60,61,61],"right_children":[2,4,6,8,10,12,14,16,18,20,22,24,26,28,30,32,34,36,38,40,42,44,46,48,50,52,54,56,58,60,62,64,66,68,70,72,74,76,78,80,82,84,86,-1,-1,88,90,92,94,96,98,-1,100,102,104,106,108,110,112,114,116,118,-1,-1,-1,-1,-1,-1,-1,-1,-1,-1,-1,-1,-1,-1,-1,-1,-1,-1,-1,-1,-1,-1,-1,-1,-1,-1,-1,-1,-1,-1,-1,-1,-1,-1,-1,-1,-1,-1,-1,-1,-1,-1,-1,-1,-1,-1,-1,-1,-1,-1,-1,-1,-1,-1,-1,-1,-1],"split_conditions":[3.856349E4,3.388211E4,4.530758E4,1E1,1E0,1E0,5.075639E4,3.111331E4,5.507434E3,3.62095E4,1.12E2,4.153879E4,1.94E2,1E0,5.349587E4,1E0,1E0,3.2685336E4,2.32E1,8E0,3.718194E4,3E0,3.1433287E4,4.007657E4,4.339702E4,4.0276763E3,1.97E2,4.757283E4,1E0,1E0,1E0,5.3227656E3,3.408412E4,3.283784E4,4.282356E3,2.6344744E4,4.5562983E3,1E1,4.1988484E4,3.481177E4,5.7143506E3,2.23E1,3.7179663E3,-1.4734158E2,-3.7724762E2,1.83E1,1E0,2.32E1,4.754919E3,4.953884E3,5.0562876E3,-3.63017E2,4.636793E3,4.603985E4,4.251632E4,4.0635258E4,2.32E1,1E1,7.4256807E3,2.37E2,1.72E2,2.94E1,2.0715236E2,-2.3697798E2,-1.6320607E2,-4.0284207E2,-3.347295E2,-1.751544E2,-1.3486098E2,-4.0106583E2,-3.053018E2,-2.0503804E2,2.2062876E1,-1.656105E2,-1.0974073E2,-5.753767E1,5.869986E1,2.3040877E2,1.3200102E2,-1.1673292E2,-8.2933075E1,-7.0460175E1,5.1268707E1,-4.033047E1,2.3389933E1,-7.165237E1,-1.7141197E0,-3.0670618E2,-1.6086148E2,-1.2789004E2,-2.8188525E2,2.8161266E1,7.54254E1,6.2403374E1,8.575293E1,9.4326775E1,1.2925743E2,1.3117435E2,1.7673729E2,-1.18172386E2,-2.180711E2,1.5177829E2,2.2818516E1,-8.163982E1,2.3587824E1,1.7611264E2,2.2616705E2,2.4280733E2,3.0080795E2,-7.4410543E0,8.6626656E1,-1.6382321E2,-9.0566055E1,3.716E2,3.0823358E2,-3.0573515E1,2.053944E2,3.9280026E2,4.5633627E2],"split_indices":[13,13,13,0,6,6,13,13,17,13,2,13,2,8,13,6,6,16,9,0,13,2,14,13,13,17,2,13,6,6,6,17,14,13,17,14,17,9,14,13,17,9,17,0,0,9,8,9,15,15,15,0,17,16,13,16,9,0,17,2,2,9,0,0,0,0,0,0,0,0,0,0,0,0,0,0,0,0,0,0,0,0,0,0,0,0,0,0,0,0,0,0,0,0,0,0,0,0,0,0,0,0,0,0,0,0,0,0,0,0,0,0,0,0,0,0,0,0,0],"split_type":[0,0,0,0,0,0,0,0,0,0,0,0,0,0,0,0,0,0,0,0,0,0,0,0,0,0,0,0,0,0,0,0,0,0,0,0,0,0,0,0,0,0,0,0,0,0,0,0,0,0,0,0,0,0,0,0,0,0,0,0,0,0,0,0,0,0,0,0,0,0,0,0,0,0,0,0,0,0,0,0,0,0,0,0,0,0,0,0,0,0,0,0,0,0,0,0,0,0,0,0,0,0,0,0,0,0,0,0,0,0,0,0,0,0,0,0,0,0,0],"sum_hessian":[2.7801E4,1.4122E4,1.3679E4,7.711E3,6.411E3,9.959E3,3.72E3,6.52E3,1.191E3,6.136E3,2.75E2,9.618E3,3.41E2,2.838E3,8.82E2,3.377E3,3.143E3,9.66E2,2.25E2,2.79E3,3.346E3,7.6E1,1.99E2,5.08E3,4.538E3,2.82E2,5.9E1,2.793E3,4.5E1,5.52E2,3.3E2,3.236E3,1.41E2,3.014E3,1.29E2,1.81E2,7.85E2,1.67E2,5.8E1,1.495E3,1.295E3,1.263E3,2.083E3,1E1,6.6E1,4.2E1,1.57E2,2.725E3,2.355E3,2.641E3,1.897E3,2.2E1,2.6E2,1.2E1,4.7E1,1.506E3,1.287E3,7E0,3.8E1,5.33E2,1.9E1,3.23E2,7E0,2.786E3,4.5E2,5.1E1,9E1,1.999E3,1.015E3,3.9E1,9E1,2.6E1,1.55E2,5.15E2,2.7E2,5.3E1,1.14E2,4.9E1,9E0,6.93E2,8.02E2,1.213E3,8.2E1,1.195E3,6.8E1,6.3E1,2.02E3,3.5E1,7E0,1.28E2,2.9E1,2.532E3,1.93E2,1.57E3,7.85E2,1.756E3,8.85E2,1.165E3,7.32E2,1.12E2,1.48E2,1.1E1,1E0,3.5E1,1.2E1,5.72E2,9.34E2,5.28E2,7.59E2,1E0,6E0,1.9E1,1.9E1,3.86E2,1.47E2,1E0,1.8E1,1.34E2,1.89E2],"tree_param":{"num_deleted":"0","num_feature":"18","num_nodes":"119","size_leaf_vector":"1"}},{"base_weights":[-4.3318458E0,-4.3430483E3,3.898559E3,-6.226585E3,-2.4175347E3,2.2173015E3,8.496916E3,-6.5018276E3,7.1560187E2,-2.1603655E3,-7.7237617E3,2.4846255E3,-5.360741E3,7.0635137E3,1.1410398E4,-6.301251E3,-1.133745E4,4.55356E3,-4.0712896E3,-3.2690793E3,-1.0506006E3,-8.669306E3,-3.4321973E3,1.4286324E3,3.9554216E3,-6.4411274E3,1.4678253E2,7.240876E3,-4.0522916E2,1.0360289E4,1.3469715E4,-6.9201685E3,-5.1008286E3,-1.3764789E4,-1.0581411E4,2.2741909E1,5.617119E3,-1.6363199E2,-4.802271E3,-3.2990544E3,2.630967E2,-1.5856356E3,-5.1178348E2,-1.0108519E4,-6.3152393E3,-8.0673456E2,-4.758604E3,7.54138E2,2.1429111E3,3.4809475E3,5.0249214E3,-7.7557085E3,-4.159064E3,-1.3705778E3,5.3386763E3,5.689892E3,7.9082153E3,-3.8862822E3,3.4374368E3,1.6637043E3,1.0554785E4,9.255841E3,1.379422E4,-2.3699507E2,-1.8263803E2,-4.3768936E1,-1.6893286E2,-4.1607495E2,-1.1879555E2,-3.6972937E2,-3.0010233E2,2.527223E1,-2.9634806E1,-4.4365334E1,1.8272208E2,-2.8103598E1,1.0963213E1,-1.615891E2,-7.7788994E1,-1.16272995E2,-8.0249084E1,-5.120008E1,7.122186E0,-1.8483765E1,3.6274868E1,-3.6108493E2,-2.692332E2,-1.5004572E2,-2.6359116E2,2.7660668E0,-6.499995E1,-1.4713773E2,-4.4076797E1,1.5619454E1,4.6589447E1,5.6214214E1,8.6057594E1,1.2291673E2,9.2299675E1,1.7140657E2,1.23107414E2,-3.7156955E2,-2.058443E2,-7.075228E1,-2.4468045E2,-7.375151E1,1.737028E1,1.5418946E0,1.7224309E2,1.9334097E2,1.4539514E2,2.5441544E2,1.9961343E2,2.8085361E1,-1.3199203E2,4.6070557E1,1.2177537E2,-7.232994E1,1.2129708E2,3.343265E2,2.6934494E2,2.9381293E2,1.5339702E2,3.7886148E2,4.4244644E2],"categories":[],"categories_nodes":[],"categories_segments":[],"categories_sizes":[],"default_left":[0,0,0,0,0,0,0,0,0,0,0,0,0,0,0,0,0,0,0,0,0,0,0,0,0,0,0,0,0,0,0,0,0,0,0,0,0,0,0,0,0,0,0,0,0,0,0,0,0,0,0,0,0,0,0,0,0,0,0,0,0,0,0,0,0,0,0,0,0,0,0,0,0,0,0,0,0,0,0,0,0,0,0,0,0,0,0,0,0,0,0,0,0,0,0,0,0,0,0,0,0,0,0,0,0,0,0,0,0,0,0,0,0,0,0,0,0,0,0,0,0,0,0,0,0],"id":4,"left_children":[1,3,5,7,9,11,13,15,17,19,21,23,25,27,29,31,33,35,37,39,41,43,45,47,49,51,53,55,57,59,61,63,65,67,69,71,73,75,77,79,-1,81,83,85,87,89,91,93,95,97,99,101,103,105,107,109,111,113,115,117,119,121,123,-1,-1,-1,-1,-1,-1,-1,-1,-1,-1,-1,-1,-1,-1,-1,-1,-1,-1,-1,-1,-1,-1,-1,-1,-1,-1,-1,-1,-1,-1,-1,-1,-1,-1,-1,-1,-1,-1,-1,-1,-1,-1,-1,-1,-1,-1,-1,-1,-1,-1,-1,-1,-1,-1,-1,-1,-1,-1,-1,-1,-1,-1],"loss_changes":[4.713619E11,4.779308E10,1.1327157E11,1.2736217E10,8.880488E9,2.1754114E10,1.6302637E10,6.1447537E9,4.70337E9,7.6497285E9,1.1916636E9,1.6095855E10,2.1787372E9,3.4894725E9,2.654421E9,4.5383844E9,3.2047923E8,6.8414106E8,3.2484646E8,1.1515965E9,8.957578E8,7.696118E8,1.9117722E8,2.9063895E9,2.180784E9,8.857313E8,4.8787344E8,2.6160742E9,8.4270336E8,1.437098E9,4.6441267E8,3.2612516E9,4.0433582E9,3.414016E6,7.61815E7,2.4025356E7,3.9549542E8,8.114381E6,1.0990285E8,1.106817E9,0E0,3.446185E8,2.7925338E8,2.2208307E8,2.6770611E8,2.4649602E7,1.0561664E7,5.785275E8,5.66997E8,7.358546E8,8.1975706E8,7.140823E8,8.012375E8,1.0322051E8,2.9517984E7,4.6340096E8,1.2322243E9,8.583034E7,2.9238336E7,2.0366592E8,6.814843E8,2.568832E7,2.5850675E8,0E0,0E0,0E0,0E0,0E0,0E0,0E0,0E0,0E0,0E0,0E0,0E0,0E0,0E0,0E0,0E0,0E0,0E0,0E0,0E0,0E0,0E0,0E0,0E0,0E0,0E0,0E0,0E0,0E0,0E0,0E0,0E0,0E0,0E0,0E0,0E0,0E0,0E0,0E0,0E0,0E0,0E0,0E0,0E0,0E0,0E0,0E0,0E0,0E0,0E0,0E0,0E0,0E0,0E0,0E0,0E0,0E0,0E0,0E0,0E0,0E0,0E0],"parents":[2147483647,0,0,1,1,2,2,3,3,4,4,5,5,6,6,7,7,8,8,9,9,10,10,11,11,12,12,13,13,14,14,15,15,16,16,17,17,18,18,19,19,20,20,21,21,22,22,23,23,24,24,25,25,26,26,27,27,28,28,29,29,30,30,31,31,32,32,33,33,34,34,35,35,36,36,37,37,38,38,39,39,41,41,42,42,43,43,44,44,45,45,46,46,47,47,48,48,49,49,50,50,51,51,52,52,53,53,54,54,55,55,56,56,57,57,58,58,59,59,60,60,61,61,62,62],"right_children":[2,4,6,8,10,12,14,16,18,20,22,24,26,28,30,32,34,36,38,40,42,44,46,48,50,52,54,56,58,60,62,64,66,68,70,72,74,76,78,80,-1,82,84,86,88,90,92,94,96,98,100,102,104,106,108,110,112,114,116,118,120,122,124,-1,-1,-1,-1,-1,-1,-1,-1,-1,-1,-1,-1,-1,-1,-1,-1,-1,-1,-1,-1,-1,-1,-1,-1,-1,-1,-1,-1,-1,-1,-1,-1,-1,-1,-1,-1,-1,-1,-1,-1,-1,-1,-1,-1,-1,-1,-1,-1,-1,-1,-1,-1,-1,-1,-1,-1,-1,-1,-1,-1,-1,-1],"split_conditions":[3.799643E4,3.308086E4,4.505626E4,2.07E1,1E0,1E0,4.939162E4,1E0,6E0,3.561606E4,1.94E2,4.153879E4,1.94E2,1E0,5.285021E4,3.277119E4,4.0851255E3,1.59E2,3.3910355E4,2.83E1,3.688056E4,3.696357E4,1.97E2,3.977827E4,4.367983E4,3.5583016E4,4.434037E4,4.0635258E4,1.94E2,3.2151205E4,4.5265273E4,3.014105E4,3.369688E4,1.24E2,3.0617973E4,2.597124E4,3.0057086E4,2.5E1,4.187071E4,3.499682E4,2.630967E2,2.17E1,2.23E1,4.0535503E3,3.7707113E4,3.2685336E4,4.7178508E4,4.092822E4,4.180412E4,9.604E1,5E0,4.0276763E3,1.41E2,3.868741E4,1E0,6.4E1,2.37E2,5.7237124E3,4.604055E4,3E0,2.37E2,1E0,2.94E1,-2.3699507E2,-1.8263803E2,-4.3768936E1,-1.6893286E2,-4.1607495E2,-1.1879555E2,-3.6972937E2,-3.0010233E2,2.527223E1,-2.9634806E1,-4.4365334E1,1.8272208E2,-2.8103598E1,1.0963213E1,-1.615891E2,-7.7788994E1,-1.16272995E2,-8.0249084E1,-5.120008E1,7.122186E0,-1.8483765E1,3.6274868E1,-3.6108493E2,-2.692332E2,-1.5004572E2,-2.6359116E2,2.7660668E0,-6.499995E1,-1.4713773E2,-4.4076797E1,1.5619454E1,4.6589447E1,5.6214214E1,8.6057594E1,1.2291673E2,9.2299675E1,1.7140657E2,1.23107414E2,-3.7156955E2,-2.058443E2,-7.075228E1,-2.4468045E2,-7.375151E1,1.737028E1,1.5418946E0,1.7224309E2,1.9334097E2,1.4539514E2,2.5441544E2,1.9961343E2,2.8085361E1,-1.3199203E2,4.6070557E1,1.2177537E2,-7.232994E1,1.2129708E2,3.343265E2,2.6934494E2,2.9381293E2,1.5339702E2,3.7886148E2,4.4244644E2],"split_indices":[13,13,13,9,6,6,13,6,1,13,2,13,2,6,13,12,17,2,16,9,13,12,2,13,12,14,12,16,2,14,16,13,16,2,14,13,14,9,12,12,0,9,9,17,16,16,14,12,12,10,1,17,2,12,1,10,2,17,13,1,2,6,9,0,0,0,0,0,0,0,0,0,0,0,0,0,0,0,0,0,0,0,0,0,0,0,0,0,0,0,0,0,0,0,0,0,0,0,0,0,0,0,0,0,0,0,0,0,0,0,0,0,0,0,0,0,0,0,0,0,0,0,0,0,0],"split_type":[0,0,0,0,0,0,0,0,0,0,0,0,0,0,0,0,0,0,0,0,0,0,0,0,0,0,0,0,0,0,0,0,0,0,0,0,0,0,0,0,0,0,0,0,0,0,0,0,0,0,0,0,0,0,0,0,0,0,0,0,0,0,0,0,0,0,0,0,0,0,0,0,0,0,0,0,0,0,0,0,0,0,0,0,0,0,0,0,0,0,0,0,0,0,0,0,0,0,0,0,0,0,0,0,0,0,0,0,0,0,0,0,0,0,0,0,0,0,0,0,0,0,0,0,0],"sum_hessian":[2.7834E4,1.3181E4,1.4653E4,6.662E3,6.519E3,1.0731E4,3.922E3,6.408E3,2.54E2,6.219E3,3E2,1.0366E4,3.65E2,2.631E3,1.291E3,6.155E3,2.53E2,1.41E2,1.13E2,3.11E3,3.109E3,2.45E2,5.5E1,6.035E3,4.331E3,3.05E2,6E1,2.57E3,6.1E1,8.59E2,4.32E2,4.058E3,2.097E3,5.6E1,1.97E2,2.7E1,1.14E2,1.8E1,9.5E1,3.103E3,7E0,1.559E3,1.55E3,1.5E2,9.5E1,1.9E1,3.6E1,3.105E3,2.93E3,3.003E3,1.328E3,1.92E2,1.13E2,4.7E1,1.3E1,7.76E2,1.794E3,3.2E1,2.9E1,1.9E1,8.4E2,3.3E1,3.99E2,1.86E3,2.198E3,2.67E2,1.83E3,5.5E1,1E0,4.4E1,1.53E2,1.5E1,1.2E1,7E0,1.07E2,7E0,1.1E1,7.4E1,2.1E1,1.61E3,1.493E3,1.462E3,9.7E1,1.462E3,8.8E1,5.2E1,9.8E1,6.4E1,3.1E1,1.2E1,7E0,3.4E1,2E0,2.404E3,7.01E2,2.14E3,7.9E2,1.186E3,1.817E3,7.57E2,5.71E2,2.9E1,1.63E2,7.9E1,3.4E1,3E1,1.7E1,1E0,1.2E1,4.06E2,3.7E2,1.228E3,5.66E2,3E0,2.9E1,8E0,2.1E1,7E0,1.2E1,6.07E2,2.33E2,2.8E1,5E0,1.86E2,2.13E2],"tree_param":{"num_deleted":"0","num_feature":"18","num_nodes":"125","size_leaf_vector":"1"}},{"base_weights":[-4.545797E0,-3.9199504E3,4.0407908E3,-5.722672E3,-1.7340662E3,2.368328E3,8.371633E3,-6.3166055E3,-2.55585E3,-1.473307E3,-7.2139194E3,2.6217815E3,-4.8319746E3,6.9072236E3,1.1142753E4,-6.109874E3,-1.1174745E4,-3.7643584E3,2.3940942E3,-2.7443777E3,-6.52831E2,-8.950396E3,-4.6434326E3,1.5792092E3,3.82461E3,-6.919342E3,-2.4647837E3,7.13219E3,-1.1090812E3,1.0113431E4,1.3121203E4,-7.162848E3,-5.134974E3,-8.076557E3,-1.1642098E4,-9.108355E2,-4.733705E3,6.9841235E2,6.211398E3,-2.7732986E3,2.767062E2,-1.2589691E3,-1.6329189E2,-1.1015023E4,-5.999532E3,-2.4232734E3,-7.9929683E3,1.0101389E3,2.2300042E3,3.3185122E3,4.777858E3,-7.7160103E3,-4.3932764E3,-1.3627169E3,-7.802196E3,6.375867E3,8.384622E3,-3.280031E3,3.098118E3,1.8525559E3,1.0285782E4,9.051919E3,1.3434287E4,-2.1850185E2,-1.3142445E1,-1.6731635E2,-1.2999915E2,-2.5526537E2,-1.3058626E2,-4.009234E2,-3.2755283E2,-8.6064835E1,9.701846E1,-1.6527086E2,-1.2089771E2,-4.0805687E1,6.0322075E1,-1.868664E1,1.922967E2,-9.806239E1,-6.461131E1,-4.051114E1,4.7644966E1,-1.5711779E1,1.0640352E1,-3.5092133E2,-2.1769986E2,-1.379306E2,-2.654137E2,-5.4395027E1,-2.146121E2,-1.5488907E2,-2.6769525E2,2.0867952E1,4.757732E1,5.9553196E1,8.5440704E1,1.2625081E2,9.112851E1,1.14538666E2,1.5417087E2,-3.2432034E2,-2.038969E2,-7.835826E1,-1.6144551E2,-3.1318704E2,-2.3267809E1,-2.475706E2,-9.4521065E1,1.6803201E2,2.0839565E2,2.8788492E2,2.2510422E2,-1.2115432E2,1.124077E2,1.6552265E1,1.03068375E2,1.21473495E2,-7.474265E1,3.131706E2,1.8098544E2,2.937367E2,1.599859E2,3.6513892E2,4.2726614E2],"categories":[],"categories_nodes":[],"categories_segments":[],"categories_sizes":[],"default_left":[0,0,0,0,0,0,0,0,0,0,0,0,0,0,0,0,0,0,0,0,0,0,0,0,0,0,0,0,0,0,0,0,0,0,0,0,0,0,0,0,0,0,0,0,0,0,0,0,0,0,0,0,0,0,0,0,0,0,0,0,0,0,0,0,0,0,0,0,0,0,0,0,0,0,0,0,0,0,0,0,0,0,0,0,0,0,0,0,0,0,0,0,0,0,0,0,0,0,0,0,0,0,0,0,0,0,0,0,0,0,0,0,0,0,0,0,0,0,0,0,0,0,0,0,0],"id":5,"left_children":[1,3,5,7,9,11,13,15,17,19,21,23,25,27,29,31,33,35,37,39,41,43,45,47,49,51,53,55,57,59,61,63,65,67,69,71,73,75,77,79,-1,81,83,85,87,89,91,93,95,97,99,101,103,105,107,109,111,113,115,117,119,121,123,-1,-1,-1,-1,-1,-1,-1,-1,-1,-1,-1,-1,-1,-1,-1,-1,-1,-1,-1,-1,-1,-1,-1,-1,-1,-1,-1,-1,-1,-1,-1,-1,-1,-1,-1,-1,-1,-1,-1,-1,-1,-1,-1,-1,-1,-1,-1,-1,-1,-1,-1,-1,-1,-1,-1,-1,-1,-1,-1,-1,-1,-1],"loss_changes":[4.405812E11,5.5689626E10,9.9074015E10,1.455317E10,9.120182E9,1.8026676E10,1.5388312E10,6.481953E9,7.3370225E9,6.360836E9,1.2528814E9,1.1952443E10,1.6431882E9,4.5091963E9,2.5472696E9,6.387335E9,2.8967936E8,2.720251E9,1.5556388E9,8.5385216E8,1.1003598E9,9.8181325E8,8.655749E8,1.8902272E9,2.119893E9,3.2431514E8,9.2463526E8,2.246443E9,6.403816E8,1.219625E9,4.478894E8,2.4336302E9,1.1291034E9,2.4131072E7,1.3821133E8,2.0462572E9,3.7885747E8,4.5659565E8,1.0437786E8,7.260119E8,0E0,4.3335347E8,3.8346886E8,1.7157018E8,2.5073126E8,1.9771322E8,7.765658E7,4.9294746E8,3.550167E8,7.108321E8,5.1185664E8,3.078057E8,6.5161216E7,7.006908E8,3.0534656E7,6.3226675E8,9.005302E8,2.60292E8,1.8729728E7,1.9138246E8,4.9228186E8,4.4017664E7,2.4807834E8,0E0,0E0,0E0,0E0,0E0,0E0,0E0,0E0,0E0,0E0,0E0,0E0,0E0,0E0,0E0,0E0,0E0,0E0,0E0,0E0,0E0,0E0,0E0,0E0,0E0,0E0,0E0,0E0,0E0,0E0,0E0,0E0,0E0,0E0,0E0,0E0,0E0,0E0,0E0,0E0,0E0,0E0,0E0,0E0,0E0,0E0,0E0,0E0,0E0,0E0,0E0,0E0,0E0,0E0,0E0,0E0,0E0,0E0,0E0,0E0,0E0,0E0],"parents":[2147483647,0,0,1,1,2,2,3,3,4,4,5,5,6,6,7,7,8,8,9,9,10,10,11,11,12,12,13,13,14,14,15,15,16,16,17,17,18,18,19,19,20,20,21,21,22,22,23,23,24,24,25,25,26,26,27,27,28,28,29,29,30,30,31,31,32,32,33,33,34,34,35,35,36,36,37,37,38,38,39,39,41,41,42,42,43,43,44,44,45,45,46,46,47,47,48,48,49,49,50,50,51,51,52,52,53,53,54,54,55,55,56,56,57,57,58,58,59,59,60,60,61,61,62,62],"right_children":[2,4,6,8,10,12,14,16,18,20,22,24,26,28,30,32,34,36,38,40,42,44,46,48,50,52,54,56,58,60,62,64,66,68,70,72,74,76,78,80,-1,82,84,86,88,90,92,94,96,98,100,102,104,106,108,110,112,114,116,118,120,122,124,-1,-1,-1,-1,-1,-1,-1,-1,-1,-1,-1,-1,-1,-1,-1,-1,-1,-1,-1,-1,-1,-1,-1,-1,-1,-1,-1,-1,-1,-1,-1,-1,-1,-1,-1,-1,-1,-1,-1,-1,-1,-1,-1,-1,-1,-1,-1,-1,-1,-1,-1,-1,-1,-1,-1,-1,-1,-1,-1,-1,-1,-1],"split_conditions":[3.856349E4,3.388211E4,4.518996E4,1E1,1E0,1E0,4.939162E4,1E0,5.507434E3,3.587049E4,2.5921E2,4.153879E4,3.4883215E4,1E0,5.285021E4,3.083897E4,2E0,3.369688E4,4.9729E2,8.8804E2,3.718194E4,3.3989145E4,1E0,4.007657E4,4.331526E4,7E0,1E0,5.3824E2,8E0,3.2151205E4,4.5265273E4,3.6864E2,3.267961E4,4.5453174E3,4.199727E3,3.5344E2,3.236745E4,3.127856E4,2.023E3,8E0,2.767062E2,6.25E2,3.879965E4,6E0,3.6669297E4,4.359927E4,2.8496951E4,3.989634E4,4.180412E4,3.844E1,4.282473E4,2.023E3,4.7667837E3,4.2886646E3,4.421394E4,4.0635258E4,8E0,4.0128684E4,1E1,1E0,1E0,1E0,8.41E2,-2.1850185E2,-1.3142445E1,-1.6731635E2,-1.2999915E2,-2.5526537E2,-1.3058626E2,-4.009234E2,-3.2755283E2,-8.6064835E1,9.701846E1,-1.6527086E2,-1.2089771E2,-4.0805687E1,6.0322075E1,-1.868664E1,1.922967E2,-9.806239E1,-6.461131E1,-4.051114E1,4.7644966E1,-1.5711779E1,1.0640352E1,-3.5092133E2,-2.1769986E2,-1.379306E2,-2.654137E2,-5.4395027E1,-2.146121E2,-1.5488907E2,-2.6769525E2,2.0867952E1,4.757732E1,5.9553196E1,8.5440704E1,1.2625081E2,9.112851E1,1.14538666E2,1.5417087E2,-3.2432034E2,-2.038969E2,-7.835826E1,-1.6144551E2,-3.1318704E2,-2.3267809E1,-2.475706E2,-9.4521065E1,1.6803201E2,2.0839565E2,2.8788492E2,2.2510422E2,-1.2115432E2,1.124077E2,1.6552265E1,1.03068375E2,1.21473495E2,-7.474265E1,3.131706E2,1.8098544E2,2.937367E2,1.599859E2,3.6513892E2,4.2726614E2],"split_indices":[13,13,13,0,6,6,13,6,17,13,10,13,14,6,13,13,0,16,10,10,13,14,8,13,12,3,8,10,3,14,16,10,13,15,17,10,13,16,5,0,0,10,12,3,16,12,14,12,12,10,13,5,17,17,13,16,3,14,0,6,6,6,10,0,0,0,0,0,0,0,0,0,0,0,0,0,0,0,0,0,0,0,0,0,0,0,0,0,0,0,0,0,0,0,0,0,0,0,0,0,0,0,0,0,0,0,0,0,0,0,0,0,0,0,0,0,0,0,0,0,0,0,0,0,0],"split_type":[0,0,0,0,0,0,0,0,0,0,0,0,0,0,0,0,0,0,0,0,0,0,0,0,0,0,0,0,0,0,0,0,0,0,0,0,0,0,0,0,0,0,0,0,0,0,0,0,0,0,0,0,0,0,0,0,0,0,0,0,0,0,0,0,0,0,0,0,0,0,0,0,0,0,0,0,0,0,0,0,0,0,0,0,0,0,0,0,0,0,0,0,0,0,0,0,0,0,0,0,0,0,0,0,0,0,0,0,0,0,0,0,0,0,0,0,0,0,0,0,0,0,0,0,0],"sum_hessian":[2.7814E4,1.4134E4,1.368E4,7.745E3,6.389E3,9.87E3,3.81E3,6.521E3,1.224E3,6.1E3,2.89E2,9.535E3,3.35E2,2.495E3,1.315E3,6.257E3,2.64E2,9.84E2,2.4E2,2.392E3,3.708E3,1.71E2,1.18E2,5.109E3,4.426E3,1.77E2,1.58E2,2.427E3,6.8E1,8.69E2,4.46E2,3.005E3,3.252E3,3.7E1,2.27E2,2.5E2,7.34E2,1.67E2,7.3E1,2.387E3,5E0,1.656E3,2.052E3,9.9E1,7.2E1,7.2E1,4.6E1,2.727E3,2.382E3,2.894E3,1.532E3,1.33E2,4.4E1,1.32E2,2.6E1,1.517E3,9.1E2,4.5E1,2.3E1,1.8E1,8.51E2,3.4E1,4.12E2,2.952E3,5.3E1,2.092E3,1.16E3,3.2E1,5E0,6.2E1,1.65E2,1.7E2,8E1,3.46E2,3.88E2,6.5E1,1.02E2,2E0,7.1E1,1.324E3,1.063E3,1.605E3,5.1E1,1.21E3,8.42E2,8.2E1,1.7E1,5E1,2.2E1,6.5E1,7E0,1.3E1,3.3E1,1.765E3,9.62E2,1.709E3,6.73E2,6.91E2,2.203E3,4.22E2,1.11E3,2.8E1,1.05E2,1.7E1,2.7E1,7E0,1.25E2,2.3E1,3E0,6.48E2,8.69E2,3.79E2,5.31E2,4.1E1,4E0,3E0,2E1,1.2E1,6E0,8.2E2,3.1E1,2.7E1,7E0,1.67E2,2.45E2],"tree_param":{"num_deleted":"0","num_feature":"18","num_nodes":"125","size_leaf_vector":"1"}},{"base_weights":[-1.9997694E1,-4.0060085E3,3.6863962E3,-6.002756E3,-2.3116218E3,2.1565603E3,8.1537964E3,-7.0634624E3,-4.5160874E3,-1.3664841E3,-4.055584E3,2.4036882E3,-4.7548457E3,6.752632E3,1.06853E4,-6.847957E3,-1.1153491E4,-4.129103E3,-9.711578E3,-1.9949938E3,1.9080464E3,-5.796563E3,-2.9066404E3,1.3508984E3,3.7841025E3,-6.8857144E3,-1.993457E3,6.9507354E3,-1.1214344E3,9.675974E3,1.2730805E4,-7.7054507E3,-6.2572446E3,-1.3026162E4,-9.789139E3,-4.654311E3,-1.6992632E3,-3.6210544E2,-8.633837E3,-3.074834E3,-1.1165216E3,4.2401333E3,2.2207872E2,-6.832293E3,-5.152371E3,-3.8232441E3,-2.0328217E3,7.79685E2,2.1322087E3,3.1908638E3,4.927782E3,-3.5383972E2,-6.1851235E3,-3.0992385E3,9.750195E2,6.2621133E3,8.312751E3,-3.6593037E3,1.8190387E3,1.5006055E3,9.87409E3,1.2899685E4,1.736175E2,-2.3571301E2,-1.751789E1,-1.8843306E2,1.3911946E2,-3.9617465E2,-1.3476051E2,-7.752287E1,-2.9498196E2,-2.4277531E2,-1.3641731E2,-2.9759932E1,-1.01260666E2,-3.213203E2,-2.1461676E2,-1.1582165E2,-7.1066086E1,-1.8410421E1,-6.382842E1,7.407476E1,2.0864294E2,-1.3619541E1,5.804397E1,-2.1109215E2,-1.3508329E1,-1.5664655E2,-2.391864E1,-1.09543564E2,-2.2675064E2,-9.24249E1,-4.011654E1,9.992255E0,4.5938747E1,8.983209E1,3.4934006E1,1.1500834E2,7.740869E1,1.6504242E2,1.2058813E2,-2.0333963E2,-6.8965164E1,-5.4183533E1,-2.5254254E2,8.40456E1,-1.7093652E2,1.5544617E2,2.0752435E2,2.6779782E2,2.0811548E2,-1.3813919E2,-5.100069E1,-7.6775894E1,1.0200951E2,-6.736853E1,1.1405116E2,3.0141052E2,1.728225E2,3.387555E2,4.0483383E2],"categories":[],"categories_nodes":[],"categories_segments":[],"categories_sizes":[],"default_left":[0,0,0,0,0,0,0,0,0,0,0,0,0,0,0,0,0,0,0,0,0,0,0,0,0,0,0,0,0,0,0,0,0,0,0,0,0,0,0,0,0,0,0,0,0,0,0,0,0,0,0,0,0,0,0,0,0,0,0,0,0,0,0,0,0,0,0,0,0,0,0,0,0,0,0,0,0,0,0,0,0,0,0,0,0,0,0,0,0,0,0,0,0,0,0,0,0,0,0,0,0,0,0,0,0,0,0,0,0,0,0,0,0,0,0,0,0,0,0,0,0],"id":6,"left_children":[1,3,5,7,9,11,13,15,17,19,21,23,25,27,29,31,33,35,37,39,41,43,45,47,49,51,53,55,57,59,61,63,65,67,69,71,73,-1,75,77,79,81,83,85,87,89,91,93,95,97,99,-1,101,103,105,107,109,111,113,115,117,119,-1,-1,-1,-1,-1,-1,-1,-1,-1,-1,-1,-1,-1,-1,-1,-1,-1,-1,-1,-1,-1,-1,-1,-1,-1,-1,-1,-1,-1,-1,-1,-1,-1,-1,-1,-1,-1,-1,-1,-1,-1,-1,-1,-1,-1,-1,-1,-1,-1,-1,-1,-1,-1,-1,-1,-1,-1,-1,-1],"loss_changes":[4.1090164E11,4.5325206E10,9.847965E10,9.667723E9,1.1946168E10,1.835024E10,1.2966822E10,3.0861885E9,5.115011E9,9.684986E9,5.079884E9,1.5061103E10,2.169296E9,3.7031526E9,2.577285E9,1.6795566E9,3.2727245E8,3.0395843E9,3.457157E8,3.7407283E9,2.9793805E9,6.400123E8,1.2232817E9,2.6238904E9,3.027239E9,6.458327E8,5.38067E8,2.1154611E9,4.4694605E8,1.4104904E9,4.2840064E8,1.4933443E9,5.554504E8,5.107405E7,8.199168E6,6.8581786E8,5.0165018E8,0E0,3.0757786E8,9.7286656E8,1.1060301E9,1.5116268E9,5.115156E8,4.9835008E8,1.85045E8,4.5300634E8,5.710597E8,1.1407845E9,2.0691169E9,1.1501752E9,7.749591E8,0E0,4.1066547E8,8.032671E8,5.6442554E8,1.0540319E9,5.9078656E8,5.144176E7,2.0255194E8,1.9818674E8,5.531402E8,2.4735744E8,0E0,0E0,0E0,0E0,0E0,0E0,0E0,0E0,0E0,0E0,0E0,0E0,0E0,0E0,0E0,0E0,0E0,0E0,0E0,0E0,0E0,0E0,0E0,0E0,0E0,0E0,0E0,0E0,0E0,0E0,0E0,0E0,0E0,0E0,0E0,0E0,0E0,0E0,0E0,0E0,0E0,0E0,0E0,0E0,0E0,0E0,0E0,0E0,0E0,0E0,0E0,0E0,0E0,0E0,0E0,0E0,0E0,0E0,0E0],"parents":[2147483647,0,0,1,1,2,2,3,3,4,4,5,5,6,6,7,7,8,8,9,9,10,10,11,11,12,12,13,13,14,14,15,15,16,16,17,17,18,18,19,19,20,20,21,21,22,22,23,23,24,24,25,25,26,26,27,27,28,28,29,29,30,30,31,31,32,32,33,33,34,34,35,35,36,36,38,38,39,39,40,40,41,41,42,42,43,43,44,44,45,45,46,46,47,47,48,48,49,49,50,50,52,52,53,53,54,54,55,55,56,56,57,57,58,58,59,59,60,60,61,61],"right_children":[2,4,6,8,10,12,14,16,18,20,22,24,26,28,30,32,34,36,38,40,42,44,46,48,50,52,54,56,58,60,62,64,66,68,70,72,74,-1,76,78,80,82,84,86,88,90,92,94,96,98,100,-1,102,104,106,108,110,112,114,116,118,120,-1,-1,-1,-1,-1,-1,-1,-1,-1,-1,-1,-1,-1,-1,-1,-1,-1,-1,-1,-1,-1,-1,-1,-1,-1,-1,-1,-1,-1,-1,-1,-1,-1,-1,-1,-1,-1,-1,-1,-1,-1,-1,-1,-1,-1,-1,-1,-1,-1,-1,-1,-1,-1,-1,-1,-1,-1,-1,-1],"split_conditions":[3.814191E4,3.339573E4,4.530758E4,3.186309E4,6E0,1E0,4.939162E4,1E0,1E0,3.954727E4,3.260484E4,4.153879E4,3.73349E4,1E0,5.285021E4,2.95178E4,2.788467E4,3.54416E4,4.1380884E3,3.562236E4,5E0,3.041461E4,3.481177E4,4.007689E4,4.332625E4,4.0276763E3,4.052953E4,4.72351E4,3.671597E4,3.2151205E4,1E0,8E0,3.509525E4,5.782842E3,3.0872713E4,2.597124E4,2E0,-3.6210544E2,2.699798E4,3.430909E4,5E0,4.237757E4,4.180599E4,2.16E1,6.236634E3,1E0,3.9284758E4,3.98976E4,5E0,2E0,5E0,-3.5383972E2,8E0,2.13E1,6E0,4.0635258E4,5E0,1.8E1,1.91E1,3E0,1E0,2.73E1,1.736175E2,-2.3571301E2,-1.751789E1,-1.8843306E2,1.3911946E2,-3.9617465E2,-1.3476051E2,-7.752287E1,-2.9498196E2,-2.4277531E2,-1.3641731E2,-2.9759932E1,-1.01260666E2,-3.213203E2,-2.1461676E2,-1.1582165E2,-7.1066086E1,-1.8410421E1,-6.382842E1,7.407476E1,2.0864294E2,-1.3619541E1,5.804397E1,-2.1109215E2,-1.3508329E1,-1.5664655E2,-2.391864E1,-1.09543564E2,-2.2675064E2,-9.24249E1,-4.011654E1,9.992255E0,4.5938747E1,8.983209E1,3.4934006E1,1.1500834E2,7.740869E1,1.6504242E2,1.2058813E2,-2.0333963E2,-6.8965164E1,-5.4183533E1,-2.5254254E2,8.40456E1,-1.7093652E2,1.5544617E2,2.0752435E2,2.6779782E2,2.0811548E2,-1.3813919E2,-5.100069E1,-7.6775894E1,1.0200951E2,-6.736853E1,1.1405116E2,3.0141052E2,1.728225E2,3.387555E2,4.0483383E2],"split_indices":[13,11,13,13,1,6,13,6,6,11,13,13,11,6,13,13,11,13,17,11,1,13,13,11,11,17,16,11,11,14,6,0,12,17,14,11,1,0,11,13,1,11,11,9,17,6,14,13,1,1,1,0,3,9,1,16,1,0,9,1,6,9,0,0,0,0,0,0,0,0,0,0,0,0,0,0,0,0,0,0,0,0,0,0,0,0,0,0,0,0,0,0,0,0,0,0,0,0,0,0,0,0,0,0,0,0,0,0,0,0,0,0,0,0,0,0,0,0,0,0,0],"split_type":[0,0,0,0,0,0,0,0,0,0,0,0,0,0,0,0,0,0,0,0,0,0,0,0,0,0,0,0,0,0,0,0,0,0,0,0,0,0,0,0,0,0,0,0,0,0,0,0,0,0,0,0,0,0,0,0,0,0,0,0,0,0,0,0,0,0,0,0,0,0,0,0,0,0,0,0,0,0,0,0,0,0,0,0,0,0,0,0,0,0,0,0,0,0,0,0,0,0,0,0,0,0,0,0,0,0,0,0,0,0,0,0,0,0,0,0,0,0,0,0,0],"sum_hessian":[2.7811E4,1.34E4,1.4411E4,6.15E3,7.25E3,1.0736E4,3.675E3,3.587E3,2.563E3,4.703E3,2.547E3,1.0366E4,3.7E2,2.368E3,1.307E3,3.41E3,1.77E2,2.387E3,1.76E2,3.946E3,7.57E2,1.011E3,1.536E3,5.882E3,4.484E3,2.08E2,1.62E2,2.31E3,5.8E1,8.79E2,4.28E2,1.386E3,2.024E3,7.1E1,1.06E2,1.962E3,4.25E2,5.2E1,1.24E2,1.769E3,2.177E3,3.17E2,4.4E2,3.84E2,6.27E2,7.48E2,7.88E2,3.399E3,2.483E3,2.955E3,1.529E3,2.4E1,1.84E2,1.18E2,4.4E1,1.538E3,7.72E2,3.1E1,2.7E1,2.1E1,8.58E2,4.17E2,1.1E1,1.357E3,2.9E1,2.02E3,4E0,6.9E1,2E0,1E0,1.05E2,5.7E1,1.905E3,3E2,1.25E2,4.9E1,7.5E1,8.35E2,9.34E2,1.455E3,7.22E2,1.93E2,1.24E2,3.16E2,1.24E2,3.72E2,1.2E1,6.17E2,1E1,7.17E2,3.1E1,3.13E2,4.75E2,2.133E3,1.266E3,1.312E3,1.171E3,1.437E3,1.518E3,9.34E2,5.95E2,1.59E2,2.5E1,9.6E1,2.2E1,3.5E1,9E0,5.84E2,9.54E2,5.3E2,2.42E2,2E1,1.1E1,7E0,2E1,8E0,1.3E1,8.22E2,3.6E1,1.18E2,2.99E2],"tree_param":{"num_deleted":"0","num_feature":"18","num_nodes":"121","size_leaf_vector":"1"}},{"base_weights":[1.0570163E1,-3.6931816E3,3.8173157E3,-5.373139E3,-1.5279701E3,2.252038E3,7.924852E3,-5.9018955E3,-2.5610127E3,-1.2935535E3,-6.6456147E3,2.4879229E3,-4.6738755E3,6.897132E3,1.1295507E4,-6.761656E3,-4.789252E3,-3.5734578E3,2.0869583E3,-2.2323481E3,-3.7197238E2,-1.0355109E4,-5.370288E3,1.482087E3,3.6642395E3,-5.6824614E3,2.0905918E1,7.041918E3,-2.683893E3,1.0355752E4,1.2797382E4,-6.5963555E3,-1.0655016E4,-4.5982715E3,-9.626127E3,-2.7280618E2,-4.27738E3,5.0195535E2,5.402074E3,-2.777293E3,-1.6866223E3,-4.6974115E2,1.2263223E3,-1.3133636E2,-3.4295416E2,-4.3173984E3,-7.866877E3,8.838559E2,2.0011549E3,3.1711653E3,4.533062E3,-6.89505E3,-3.448721E3,4.219343E3,-1.6394274E3,6.083589E3,8.213115E3,2.316663E3,-3.8594795E3,1.8076942E3,1.0446877E4,1.301935E4,9.037518E3,-2.0668059E2,-1.422239E2,-2.7301312E2,-3.4475903E2,-1.5141267E2,-1.18224724E2,-1.6810464E2,-3.018455E2,-8.172427E1,7.571248E1,-1.4536461E2,-9.7846085E1,-7.0996E1,4.096546E1,9.483907E1,1.8077571E2,-2.0226314E2,-8.085354E1,-5.6427895E1,4.1124218E1,-2.8033716E1,-4.405421E0,7.192519E1,-2.0729904E1,-1.8351982E2,-5.831338E1,-2.754084E2,-1.6706961E2,2.3311716E1,7.270043E1,7.770943E1,5.454233E1,8.155103E1,1.12163574E2,1.144545E2,1.5693588E2,-2.5446582E2,-1.7313858E2,-5.1470284E1,-2.1785994E2,1.6588095E1,1.4896516E2,-7.191947E1,1.5546817E1,1.8627615E2,6.8262344E1,2.643667E2,2.023562E2,-1.4362499E1,8.177801E1,-1.3292535E2,-3.9175297E1,-3.5215546E1,9.705248E1,3.3019406E2,2.6679843E2,3.5014145E2,4.0619644E2,2.8800046E2,1.2318814E2],"categories":[],"categories_nodes":[],"categories_segments":[],"categories_sizes":[],"default_left":[0,0,0,0,0,0,0,0,0,0,0,0,0,0,0,0,0,0,0,0,0,0,0,0,0,0,0,0,0,0,0,0,0,0,0,0,0,0,0,0,0,0,0,0,0,0,0,0,0,0,0,0,0,0,0,0,0,0,0,0,0,0,0,0,0,0,0,0,0,0,0,0,0,0,0,0,0,0,0,0,0,0,0,0,0,0,0,0,0,0,0,0,0,0,0,0,0,0,0,0,0,0,0,0,0,0,0,0,0,0,0,0,0,0,0,0,0,0,0,0,0,0,0],"id":7,"left_children":[1,3,5,7,9,11,13,15,17,19,21,23,25,27,29,31,33,35,37,39,41,43,45,47,49,51,53,55,57,59,61,63,65,67,69,71,73,75,77,79,81,83,85,-1,-1,87,89,91,93,95,97,99,101,103,105,107,109,111,113,115,117,119,121,-1,-1,-1,-1,-1,-1,-1,-1,-1,-1,-1,-1,-1,-1,-1,-1,-1,-1,-1,-1,-1,-1,-1,-1,-1,-1,-1,-1,-1,-1,-1,-1,-1,-1,-1,-1,-1,-1,-1,-1,-1,-1,-1,-1,-1,-1,-1,-1,-1,-1,-1,-1,-1,-1,-1,-1,-1,-1,-1,-1],"loss_changes":[3.9274843E11,5.134916E10,8.8303305E10,1.1805966E10,7.3933097E9,1.6263856E10,1.3051003E10,6.3682806E9,5.9367834E9,5.1045693E9,1.2217108E9,1.1377959E10,1.5532278E9,4.051501E9,1.1151606E9,2.3572644E9,2.6530816E9,2.4035543E9,1.1847983E9,8.645878E8,4.6608445E8,3.8757786E8,4.99648E8,1.6092221E9,1.8851226E9,7.075461E8,4.1819475E8,3.1645532E9,2.6759891E8,4.0875213E8,1.6274637E8,1.9359826E9,9.318605E7,8.09558E8,1.3627597E8,1.2613946E9,4.7646925E8,3.847068E8,8.298637E7,4.578345E8,8.7171994E8,4.212142E8,3.8788854E8,0E0,0E0,6.075996E8,1.2694016E8,3.9468736E8,2.948219E8,7.177093E8,7.834624E8,2.6138931E8,6.2857306E8,4.376189E7,7.155859E7,7.4121626E8,1.0715218E9,1.1601764E7,4.674019E7,3.358828E7,3.7419008E8,6.2992384E7,2.1603712E7,0E0,0E0,0E0,0E0,0E0,0E0,0E0,0E0,0E0,0E0,0E0,0E0,0E0,0E0,0E0,0E0,0E0,0E0,0E0,0E0,0E0,0E0,0E0,0E0,0E0,0E0,0E0,0E0,0E0,0E0,0E0,0E0,0E0,0E0,0E0,0E0,0E0,0E0,0E0,0E0,0E0,0E0,0E0,0E0,0E0,0E0,0E0,0E0,0E0,0E0,0E0,0E0,0E0,0E0,0E0,0E0,0E0,0E0,0E0,0E0],"parents":[2147483647,0,0,1,1,2,2,3,3,4,4,5,5,6,6,7,7,8,8,9,9,10,10,11,11,12,12,13,13,14,14,15,15,16,16,17,17,18,18,19,19,20,20,21,21,22,22,23,23,24,24,25,25,26,26,27,27,28,28,29,29,30,30,31,31,32,32,33,33,34,34,35,35,36,36,37,37,38,38,39,39,40,40,41,41,42,42,45,45,46,46,47,47,48,48,49,49,50,50,51,51,52,52,53,53,54,54,55,55,56,56,57,57,58,58,59,59,60,60,61,61,62,62],"right_children":[2,4,6,8,10,12,14,16,18,20,22,24,26,28,30,32,34,36,38,40,42,44,46,48,50,52,54,56,58,60,62,64,66,68,70,72,74,76,78,80,82,84,86,-1,-1,88,90,92,94,96,98,100,102,104,106,108,110,112,114,116,118,120,122,-1,-1,-1,-1,-1,-1,-1,-1,-1,-1,-1,-1,-1,-1,-1,-1,-1,-1,-1,-1,-1,-1,-1,-1,-1,-1,-1,-1,-1,-1,-1,-1,-1,-1,-1,-1,-1,-1,-1,-1,-1,-1,-1,-1,-1,-1,-1,-1,-1,-1,-1,-1,-1,-1,-1,-1,-1,-1,-1,-1],"split_conditions":[3.856349E4,3.405058E4,4.518996E4,1E1,1E0,1E0,5.075639E4,3.143132E4,5.507434E3,3.646397E4,1.12E2,4.153879E4,1.94E2,1E0,5.349587E4,1E0,1E0,3.2685336E4,2.2E1,8E0,2.23E1,3E0,1E0,3.98976E4,5.0012896E3,3.5890973E4,1.97E2,4.757283E4,1E0,1.73E2,2.41E2,5.3227656E3,5E0,3.283784E4,1E0,1.69E1,4.5562983E3,2.024E3,2.37E1,3.03535E4,5.7322354E3,3.741652E4,2.13E2,-1.3133636E2,-3.4295416E2,1.63E1,1.2E1,2.32E1,5.6E0,4.312694E4,4.330569E4,1.74E1,1.41E2,3.943895E4,4.251632E4,1E0,2.38E2,1E1,1.8E1,1.72E2,2.37E2,2.83E1,1E0,-2.0668059E2,-1.422239E2,-2.7301312E2,-3.4475903E2,-1.5141267E2,-1.18224724E2,-1.6810464E2,-3.018455E2,-8.172427E1,7.571248E1,-1.4536461E2,-9.7846085E1,-7.0996E1,4.096546E1,9.483907E1,1.8077571E2,-2.0226314E2,-8.085354E1,-5.6427895E1,4.1124218E1,-2.8033716E1,-4.405421E0,7.192519E1,-2.0729904E1,-1.8351982E2,-5.831338E1,-2.754084E2,-1.6706961E2,2.3311716E1,7.270043E1,7.770943E1,5.454233E1,8.155103E1,1.12163574E2,1.144545E2,1.5693588E2,-2.5446582E2,-1.7313858E2,-5.1470284E1,-2.1785994E2,1.6588095E1,1.4896516E2,-7.191947E1,1.5546817E1,1.8627615E2,6.8262344E1,2.643667E2,2.023562E2,-1.4362499E1,8.177801E1,-1.3292535E2,-3.9175297E1,-3.5215546E1,9.705248E1,3.3019406E2,2.6679843E2,3.5014145E2,4.0619644E2,2.8800046E2,1.2318814E2],"split_indices":[13,13,13,0,6,6,13,13,17,13,2,13,2,8,13,6,6,16,9,0,9,2,8,13,15,14,2,13,6,2,2,17,0,13,0,9,17,5,9,14,17,13,2,0,0,9,0,9,9,13,13,9,2,13,13,7,2,0,0,2,2,9,6,0,0,0,0,0,0,0,0,0,0,0,0,0,0,0,0,0,0,0,0,0,0,0,0,0,0,0,0,0,0,0,0,0,0,0,0,0,0,0,0,0,0,0,0,0,0,0,0,0,0,0,0,0,0,0,0,0,0,0,0],"split_type":[0,0,0,0,0,0,0,0,0,0,0,0,0,0,0,0,0,0,0,0,0,0,0,0,0,0,0,0,0,0,0,0,0,0,0,0,0,0,0,0,0,0,0,0,0,0,0,0,0,0,0,0,0,0,0,0,0,0,0,0,0,0,0,0,0,0,0,0,0,0,0,0,0,0,0,0,0,0,0,0,0,0,0,0,0,0,0,0,0,0,0,0,0,0,0,0,0,0,0,0,0,0,0,0,0,0,0,0,0,0,0,0,0,0,0,0,0,0,0,0,0,0,0],"sum_hessian":[2.7854E4,1.4118E4,1.3736E4,7.949E3,6.169E3,9.947E3,3.789E3,6.69E3,1.259E3,5.9E3,2.69E2,9.62E3,3.27E2,2.906E3,8.83E2,3.771E3,2.919E3,1.034E3,2.25E2,2.922E3,2.978E3,6.7E1,2.02E2,5.187E3,4.433E3,2.69E2,5.8E1,2.863E3,4.3E1,5.48E2,3.35E2,3.62E3,1.51E2,2.81E3,1.09E2,1.82E2,8.52E2,1.53E2,7.2E1,1.46E3,1.462E3,2.807E3,1.71E2,1.1E1,5.6E1,1.44E2,5.8E1,2.411E3,2.776E3,2.831E3,1.602E3,1.73E2,9.6E1,1.6E1,4.2E1,1.578E3,1.285E3,8E0,3.5E1,6E0,5.42E2,3.14E2,2.1E1,3.124E3,4.96E2,5.7E1,9.4E1,1.666E3,1.144E3,1.2E1,9.7E1,9.7E1,8.5E1,5.44E2,3.08E2,3.5E1,1.18E2,1.7E1,5.5E1,2.8E1,1.432E3,1.375E3,8.7E1,1.15E3,1.657E3,1.06E2,6.5E1,8.1E1,6.3E1,3.5E1,2.3E1,2.256E3,1.55E2,6.55E2,2.121E3,1.578E3,1.253E3,7.93E2,8.09E2,6.9E1,1.04E2,6.7E1,2.9E1,3E0,1.3E1,3.1E1,1.1E1,1.527E3,5.1E1,9.09E2,3.76E2,1E0,7E0,2.8E1,7E0,2E0,4E0,3.94E2,1.48E2,9.4E1,2.2E2,1.8E1,3E0],"tree_param":{"num_deleted":"0","num_feature":"18","num_nodes":"123","size_leaf_vector":"1"}},{"base_weights":[1.1553283E1,-3.5790603E3,3.7001558E3,-5.1786045E3,-1.4634628E3,2.2415308E3,7.8130425E3,-6.2092197E3,-3.6321938E3,-1.2414756E3,-6.4671265E3,2.4740464E3,-4.3704336E3,6.4576772E3,1.017715E4,-5.987576E3,-1.0307803E4,3.175708E2,-4.233543E3,-2.1382861E3,-3.7661035E2,-9.792733E3,-5.2253687E3,1.6242048E3,3.849665E3,-6.5294976E3,-1.7737596E3,6.6465605E3,-6.701158E2,9.2305E3,1.2019469E4,-6.9846816E3,-5.1259033E3,-1.1736566E4,-9.24881E3,-1.5847737E3,3.4901233E3,-5.529306E3,-3.6645098E3,-2.8318828E3,-1.6057361E3,-6.6337006E2,6.085372E2,-1.2687051E2,-3.2325018E2,-8.51884E3,-3.820482E3,1.1304672E3,2.5753557E3,3.2760361E3,4.954379E3,-8.728261E3,-4.8558228E3,-6.1310046E2,-7.923943E3,5.9770625E3,7.8933037E3,-3.550186E3,2.9814587E3,9.485151E3,4.3567827E3,8.214767E3,1.2307067E4,-2.126361E2,-2.4516283E1,-3.00693E2,-1.5226653E2,-3.6817694E2,-2.5098557E2,-3.1065524E2,-2.4190146E2,-3.0159925E1,-1.4839522E2,6.100915E1,1.6444376E2,-1.6968721E2,6.380478E-1,-1.1207941E2,2.4442896E2,-1.960559E2,-8.2509125E1,-5.0351597E1,1.2859763E2,-3.3060863E1,-1.1553377E1,3.9844303E1,-1.3204567E1,-3.0695703E2,-2.0079367E2,-9.2442665E1,-2.1330717E2,1.6703035E1,4.9766254E1,9.064555E1,5.986222E1,8.9329834E1,1.320181E2,1.379279E2,1.6917595E2,-2.7447668E2,-1.317228E2,-1.7362627E2,-7.89101E1,-3.441663E1,1.1102214E2,-2.6073236E2,-1.562218E2,1.4748964E2,1.9804152E2,2.6469595E2,2.1632367E2,-1.3693622E2,-3.930475E1,3.490585E1,1.06786736E2,1.2736201E2,2.8810202E2,-4.9632145E1,1.5448624E2,2.664619E2,1.4807376E2,3.3592868E2,3.8954678E2],"categories":[],"categories_nodes":[],"categories_segments":[],"categories_sizes":[],"default_left":[0,0,0,0,0,0,0,0,0,0,0,0,0,0,0,0,0,0,0,0,0,0,0,0,0,0,0,0,0,0,0,0,0,0,0,0,0,0,0,0,0,0,0,0,0,0,0,0,0,0,0,0,0,0,0,0,0,0,0,0,0,0,0,0,0,0,0,0,0,0,0,0,0,0,0,0,0,0,0,0,0,0,0,0,0,0,0,0,0,0,0,0,0,0,0,0,0,0,0,0,0,0,0,0,0,0,0,0,0,0,0,0,0,0,0,0,0,0,0,0,0,0,0],"id":8,"left_children":[1,3,5,7,9,11,13,15,17,19,21,23,25,27,29,31,33,35,37,39,41,43,45,47,49,51,53,55,57,59,61,63,65,67,69,71,73,75,77,79,81,83,85,-1,-1,87,89,91,93,95,97,99,101,103,105,107,109,111,113,115,117,119,121,-1,-1,-1,-1,-1,-1,-1,-1,-1,-1,-1,-1,-1,-1,-1,-1,-1,-1,-1,-1,-1,-1,-1,-1,-1,-1,-1,-1,-1,-1,-1,-1,-1,-1,-1,-1,-1,-1,-1,-1,-1,-1,-1,-1,-1,-1,-1,-1,-1,-1,-1,-1,-1,-1,-1,-1,-1,-1,-1,-1],"loss_changes":[3.6894776E11,4.776085E10,8.241694E10,1.278804E10,6.7442135E9,1.5607587E10,1.1459903E10,4.3186913E9,7.642325E9,4.514855E9,1.0142669E9,1.1451687E10,1.9226209E9,3.0861967E9,2.171986E9,3.8966723E9,2.6365952E8,2.5765635E9,2.0383744E9,1.0511268E9,8.3801805E8,3.3152307E8,8.465751E8,2.8429783E9,2.3550607E9,6.494597E8,1.122988E9,1.8141757E9,6.415922E8,1.0371891E9,3.8146048E8,1.3427589E9,5.5547904E8,7.978496E7,1.0798387E8,5.15125E8,4.5290854E8,5.989929E8,1.6707584E9,3.566428E8,7.0025626E8,2.7994746E8,5.054411E8,0E0,0E0,1.0666035E8,3.063195E8,1.208937E9,5.295872E8,8.1434624E8,2.8608512E8,1.0590157E8,2.1079142E8,3.1299635E8,6.841216E6,9.311068E8,4.2887578E8,7.127389E7,2.423384E7,4.704092E8,2.2296346E8,3.0553856E7,1.6141517E8,0E0,0E0,0E0,0E0,0E0,0E0,0E0,0E0,0E0,0E0,0E0,0E0,0E0,0E0,0E0,0E0,0E0,0E0,0E0,0E0,0E0,0E0,0E0,0E0,0E0,0E0,0E0,0E0,0E0,0E0,0E0,0E0,0E0,0E0,0E0,0E0,0E0,0E0,0E0,0E0,0E0,0E0,0E0,0E0,0E0,0E0,0E0,0E0,0E0,0E0,0E0,0E0,0E0,0E0,0E0,0E0,0E0,0E0,0E0,0E0],"parents":[2147483647,0,0,1,1,2,2,3,3,4,4,5,5,6,6,7,7,8,8,9,9,10,10,11,11,12,12,13,13,14,14,15,15,16,16,17,17,18,18,19,19,20,20,21,21,22,22,23,23,24,24,25,25,26,26,27,27,28,28,29,29,30,30,31,31,32,32,33,33,34,34,35,35,36,36,37,37,38,38,39,39,40,40,41,41,42,42,45,45,46,46,47,47,48,48,49,49,50,50,51,51,52,52,53,53,54,54,55,55,56,56,57,57,58,58,59,59,60,60,61,61,62,62],"right_children":[2,4,6,8,10,12,14,16,18,20,22,24,26,28,30,32,34,36,38,40,42,44,46,48,50,52,54,56,58,60,62,64,66,68,70,72,74,76,78,80,82,84,86,-1,-1,88,90,92,94,96,98,100,102,104,106,108,110,112,114,116,118,120,122,-1,-1,-1,-1,-1,-1,-1,-1,-1,-1,-1,-1,-1,-1,-1,-1,-1,-1,-1,-1,-1,-1,-1,-1,-1,-1,-1,-1,-1,-1,-1,-1,-1,-1,-1,-1,-1,-1,-1,-1,-1,-1,-1,-1,-1,-1,-1,-1,-1,-1,-1,-1,-1,-1,-1,-1,-1,-1,-1,-1],"split_conditions":[3.856349E4,3.414279E4,4.544988E4,3.284826E4,1E0,1E0,4.939162E4,1E0,3.369688E4,3.646397E4,1.12E2,4.215003E4,3.73349E4,1E0,5.285021E4,3.050731E4,2.736637E4,3.1684E2,3.134791E4,3.544451E4,4.067691E4,3E0,3.150092E4,4.101118E4,4.378747E4,1.59E2,1E0,4.72351E4,1.94E2,1E0,4.5265273E4,8E0,2.335348E4,9E0,1.1664E2,2.01E2,4.014333E4,4.459621E4,7.84E2,2.597124E4,4.861084E4,3.733359E4,2.1E2,-1.2687051E2,-3.2325018E2,1.59E2,1E0,3.995939E4,2.1E2,4.331526E4,4.443072E4,4.2436E2,1.93E2,4.607344E4,2E1,4.0635258E4,2.09E2,1.7E1,4.604055E4,3.710678E4,1.72E2,1E0,8.41E2,-2.126361E2,-2.4516283E1,-3.00693E2,-1.5226653E2,-3.6817694E2,-2.5098557E2,-3.1065524E2,-2.4190146E2,-3.0159925E1,-1.4839522E2,6.100915E1,1.6444376E2,-1.6968721E2,6.380478E-1,-1.1207941E2,2.4442896E2,-1.960559E2,-8.2509125E1,-5.0351597E1,1.2859763E2,-3.3060863E1,-1.1553377E1,3.9844303E1,-1.3204567E1,-3.0695703E2,-2.0079367E2,-9.2442665E1,-2.1330717E2,1.6703035E1,4.9766254E1,9.064555E1,5.986222E1,8.9329834E1,1.320181E2,1.379279E2,1.6917595E2,-2.7447668E2,-1.317228E2,-1.7362627E2,-7.89101E1,-3.441663E1,1.1102214E2,-2.6073236E2,-1.562218E2,1.4748964E2,1.9804152E2,2.6469595E2,2.1632367E2,-1.3693622E2,-3.930475E1,3.490585E1,1.06786736E2,1.2736201E2,2.8810202E2,-4.9632145E1,1.5448624E2,2.664619E2,1.4807376E2,3.3592868E2,3.8954678E2],"split_indices":[13,13,13,11,6,6,13,6,16,13,2,13,11,6,13,13,11,10,13,11,11,2,11,11,11,2,8,11,2,6,16,0,11,0,10,2,11,11,10,11,11,13,2,0,0,2,8,13,2,12,13,10,2,11,0,16,2,0,13,11,2,6,10,0,0,0,0,0,0,0,0,0,0,0,0,0,0,0,0,0,0,0,0,0,0,0,0,0,0,0,0,0,0,0,0,0,0,0,0,0,0,0,0,0,0,0,0,0,0,0,0,0,0,0,0,0,0,0,0,0,0,0,0],"split_type":[0,0,0,0,0,0,0,0,0,0,0,0,0,0,0,0,0,0,0,0,0,0,0,0,0,0,0,0,0,0,0,0,0,0,0,0,0,0,0,0,0,0,0,0,0,0,0,0,0,0,0,0,0,0,0,0,0,0,0,0,0,0,0,0,0,0,0,0,0,0,0,0,0,0,0,0,0,0,0,0,0,0,0,0,0,0,0,0,0,0,0,0,0,0,0,0,0,0,0,0,0,0,0,0,0,0,0,0,0,0,0,0,0,0,0,0,0,0,0,0,0,0,0],"sum_hessian":[2.7855E4,1.4115E4,1.374E4,8.037E3,6.078E3,1.0144E4,3.596E3,4.821E3,3.216E3,5.821E3,2.57E2,9.8E3,3.44E2,2.288E3,1.308E3,4.576E3,2.45E2,4.25E2,2.791E3,2.857E3,2.964E3,6.8E1,1.89E2,6.059E3,3.741E3,1.87E2,1.57E2,2.229E3,5.9E1,8.68E2,4.4E2,2.118E3,2.458E3,1E2,1.45E2,2.66E2,1.59E2,8.49E2,1.942E3,1.239E3,1.618E3,2.296E3,6.68E2,1.1E1,5.7E1,5.5E1,1.34E2,3.99E3,2.069E3,2.465E3,1.276E3,7.9E1,1.08E2,1.33E2,2.4E1,1.454E3,7.75E2,3.3E1,2.6E1,8.24E2,4.4E1,3.3E1,4.07E2,2.083E3,3.5E1,2.3E1,2.435E3,8.4E1,1.6E1,7.1E1,7.4E1,2.28E2,3.8E1,9.3E1,6.6E1,8.3E2,1.9E1,1.931E3,1.1E1,2.5E1,1.214E3,1.599E3,1.9E1,8.9E2,1.406E3,3.96E2,2.72E2,2.6E1,2.9E1,1.11E2,2.3E1,1.914E3,2.076E3,1.167E3,9.02E2,1.951E3,5.14E2,8.44E2,4.32E2,7.1E1,8E0,7.5E1,3.3E1,1.19E2,1.4E1,1.7E1,7E0,5.42E2,9.12E2,3.23E2,4.52E2,2.2E1,1.1E1,7E0,1.9E1,1.9E1,8.05E2,5E0,3.9E1,2.6E1,7E0,1.61E2,2.46E2],"tree_param":{"num_deleted":"0","num_feature":"18","num_nodes":"123","size_leaf_vector":"1"}},{"base_weights":[-8.675865E0,-3.475564E3,3.5448977E3,-5.0629487E3,-1.4498518E3,2.0834377E3,7.3588726E3,-5.5654365E3,-2.4055984E3,-1.2403256E3,-6.268209E3,2.3204695E3,-4.642105E3,6.109886E3,9.777925E3,-6.3599004E3,-4.4840737E3,2.7580977E3,-3.8784854E3,-2.2497957E3,-4.468194E2,-1.0008558E4,-4.9303364E3,1.4764468E3,3.5404788E3,-5.579552E3,9.367695E1,6.29539E3,-7.646651E2,8.862192E3,1.1607942E4,-6.218736E3,-9.879302E3,-4.29465E3,-9.11002E3,6.17244E2,5.369798E3,-9.94557E2,-4.2989487E3,-2.7875232E3,-1.688064E3,-9.5645776E2,-1.3727701E2,-1.158186E2,-3.2330222E2,-3.8633772E3,-7.3895664E3,8.562187E2,2.0517666E3,3.0634082E3,4.3924897E3,-7.322463E3,-4.8687065E3,-1.7788527E3,3.3884348E3,4.888615E3,6.8861255E3,-3.5885576E3,2.8377544E3,9.127253E3,3.432017E3,1.196654E4,7.8214146E3,-1.9232262E2,-1.2600701E2,-2.3897916E2,-3.1578488E2,-1.415633E2,-1.1089629E2,-1.6088916E2,-2.867074E2,-3.403017E1,8.116548E1,1.4319744E1,1.9911201E2,-6.3802395E1,8.597274E1,-1.457242E2,-8.852313E1,-9.932755E1,-7.4213455E1,-1.1908902E1,-6.576893E1,-4.507439E1,-1.830972E1,-1.2183447E2,-3.200228E0,-1.6702344E2,-5.7490623E1,-2.5383249E2,-1.6313138E2,1.6331133E1,4.026015E1,5.3871063E1,8.06303E1,8.0098045E1,1.089514E2,1.11365875E2,1.4500189E2,-3.0392007E2,-1.3621497E2,-2.080784E2,-1.21189285E2,-7.311783E1,-1.1275438E1,4.5304756E1,1.4013885E2,1.6828548E2,1.18245346E2,2.383968E2,1.8551277E2,-1.3607994E2,-4.9211246E1,3.519857E1,1.0169054E2,2.404925E2,2.9007388E2,-6.754625E1,1.450664E2,3.2740295E2,3.8344952E2,2.5981253E2,1.4466556E2],"categories":[],"categories_nodes":[],"categories_segments":[],"categories_sizes":[],"default_left":[0,0,0,0,0,0,0,0,0,0,0,0,0,0,0,0,0,0,0,0,0,0,0,0,0,0,0,0,0,0,0,0,0,0,0,0,0,0,0,0,0,0,0,0,0,0,0,0,0,0,0,0,0,0,0,0,0,0,0,0,0,0,0,0,0,0,0,0,0,0,0,0,0,0,0,0,0,0,0,0,0,0,0,0,0,0,0,0,0,0,0,0,0,0,0,0,0,0,0,0,0,0,0,0,0,0,0,0,0,0,0,0,0,0,0,0,0,0,0,0,0,0,0],"id":9,"left_children":[1,3,5,7,9,11,13,15,17,19,21,23,25,27,29,31,33,35,37,39,41,43,45,47,49,51,53,55,57,59,61,63,65,67,69,71,73,75,77,79,81,83,85,-1,-1,87,89,91,93,95,97,99,101,103,105,107,109,111,113,115,117,119,121,-1,-1,-1,-1,-1,-1,-1,-1,-1,-1,-1,-1,-1,-1,-1,-1,-1,-1,-1,-1,-1,-1,-1,-1,-1,-1,-1,-1,-1,-1,-1,-1,-1,-1,-1,-1,-1,-1,-1,-1,-1,-1,-1,-1,-1,-1,-1,-1,-1,-1,-1,-1,-1,-1,-1,-1,-1,-1,-1,-1],"loss_changes":[3.4323078E11,4.533882E10,7.6671386E10,1.0543383E10,6.2485463E9,1.5869546E10,1.1454644E10,5.6827904E9,9.586073E9,4.7570575E9,1.2417147E9,9.890341E9,1.5055278E9,3.2133612E9,2.0689797E9,1.8413814E9,2.431066E9,1.5622405E9,1.1840594E9,7.8487654E8,5.2471846E8,2.7481907E8,4.7523994E8,2.0257485E9,1.5835628E9,3.149691E8,3.5769085E8,2.0023624E9,6.917641E8,1.2180111E9,4.8891904E8,1.4013399E9,9.684582E7,6.700114E8,1.329449E8,5.700252E8,7.780424E8,5.567914E8,6.294733E8,2.1086618E8,8.330816E8,2.366519E8,2.4825504E8,0E0,0E0,4.4056077E8,7.320346E7,4.1374976E8,4.7504486E8,5.542564E8,4.0437965E8,5.789875E8,3.2161126E8,3.3262696E7,4.354651E7,4.7494554E8,1.2341821E9,6.269917E7,2.3583056E7,4.2029056E8,3.4592326E8,1.952809E8,5.8892544E7,0E0,0E0,0E0,0E0,0E0,0E0,0E0,0E0,0E0,0E0,0E0,0E0,0E0,0E0,0E0,0E0,0E0,0E0,0E0,0E0,0E0,0E0,0E0,0E0,0E0,0E0,0E0,0E0,0E0,0E0,0E0,0E0,0E0,0E0,0E0,0E0,0E0,0E0,0E0,0E0,0E0,0E0,0E0,0E0,0E0,0E0,0E0,0E0,0E0,0E0,0E0,0E0,0E0,0E0,0E0,0E0,0E0,0E0,0E0,0E0],"parents":[2147483647,0,0,1,1,2,2,3,3,4,4,5,5,6,6,7,7,8,8,9,9,10,10,11,11,12,12,13,13,14,14,15,15,16,16,17,17,18,18,19,19,20,20,21,21,22,22,23,23,24,24,25,25,26,26,27,27,28,28,29,29,30,30,31,31,32,32,33,33,34,34,35,35,36,36,37,37,38,38,39,39,40,40,41,41,42,42,45,45,46,46,47,47,48,48,49,49,50,50,51,51,52,52,53,53,54,54,55,55,56,56,57,57,58,58,59,59,60,60,61,61,62,62],"right_children":[2,4,6,8,10,12,14,16,18,20,22,24,26,28,30,32,34,36,38,40,42,44,46,48,50,52,54,56,58,60,62,64,66,68,70,72,74,76,78,80,82,84,86,-1,-1,88,90,92,94,96,98,100,102,104,106,108,110,112,114,116,118,120,122,-1,-1,-1,-1,-1,-1,-1,-1,-1,-1,-1,-1,-1,-1,-1,-1,-1,-1,-1,-1,-1,-1,-1,-1,-1,-1,-1,-1,-1,-1,-1,-1,-1,-1,-1,-1,-1,-1,-1,-1,-1,-1,-1,-1,-1,-1,-1,-1,-1,-1,-1,-1,-1,-1,-1,-1,-1,-1,-1,-1],"split_conditions":[3.856349E4,3.405058E4,4.518996E4,1E1,1E0,1E0,4.939162E4,3.149939E4,5E0,3.62095E4,1.12E2,4.18704E4,1.94E2,1E0,5.285021E4,1E0,1E0,1.84E1,6E0,3.587406E4,3.718194E4,3E0,1E0,4.007657E4,5.023713E3,2.023E3,4.038327E4,4.0635258E4,1.94E2,1E0,2.41E2,1.57E1,4E0,3.283784E4,1E0,3.604074E4,1.32E2,3.965716E4,4.391531E3,3.472222E4,5E0,9E0,2.736637E4,-1.158186E2,-3.2330222E2,1.61E1,1.2E1,3.959081E4,4.187071E4,4.23761E4,4.312694E4,1.25E2,1.04E2,3.814246E4,2.09E1,6.561E1,2.1E2,1.7E1,4.604055E4,2.48E1,1.72E2,2.94E1,1E0,-1.9232262E2,-1.2600701E2,-2.3897916E2,-3.1578488E2,-1.415633E2,-1.1089629E2,-1.6088916E2,-2.867074E2,-3.403017E1,8.116548E1,1.4319744E1,1.9911201E2,-6.3802395E1,8.597274E1,-1.457242E2,-8.852313E1,-9.932755E1,-7.4213455E1,-1.1908902E1,-6.576893E1,-4.507439E1,-1.830972E1,-1.2183447E2,-3.200228E0,-1.6702344E2,-5.7490623E1,-2.5383249E2,-1.6313138E2,1.6331133E1,4.026015E1,5.3871063E1,8.06303E1,8.0098045E1,1.089514E2,1.11365875E2,1.4500189E2,-3.0392007E2,-1.3621497E2,-2.080784E2,-1.21189285E2,-7.311783E1,-1.1275438E1,4.5304756E1,1.4013885E2,1.6828548E2,1.18245346E2,2.383968E2,1.8551277E2,-1.3607994E2,-4.9211246E1,3.519857E1,1.0169054E2,2.404925E2,2.9007388E2,-6.754625E1,1.450664E2,3.2740295E2,3.8344952E2,2.5981253E2,1.4466556E2],"split_indices":[13,13,13,0,6,6,13,13,1,13,2,13,2,6,13,6,6,9,1,12,13,2,8,13,15,5,12,16,2,6,2,9,0,13,0,12,2,12,15,13,1,0,12,0,0,9,0,12,12,12,13,2,2,12,9,10,2,0,13,9,2,9,6,0,0,0,0,0,0,0,0,0,0,0,0,0,0,0,0,0,0,0,0,0,0,0,0,0,0,0,0,0,0,0,0,0,0,0,0,0,0,0,0,0,0,0,0,0,0,0,0,0,0,0,0,0,0,0,0,0,0,0,0],"split_type":[0,0,0,0,0,0,0,0,0,0,0,0,0,0,0,0,0,0,0,0,0,0,0,0,0,0,0,0,0,0,0,0,0,0,0,0,0,0,0,0,0,0,0,0,0,0,0,0,0,0,0,0,0,0,0,0,0,0,0,0,0,0,0,0,0,0,0,0,0,0,0,0,0,0,0,0,0,0,0,0,0,0,0,0,0,0,0,0,0,0,0,0,0,0,0,0,0,0,0,0,0,0,0,0,0,0,0,0,0,0,0,0,0,0,0,0,0,0,0,0,0,0,0],"sum_hessian":[2.7858E4,1.4101E4,1.3757E4,7.905E3,6.196E3,9.947E3,3.81E3,6.647E3,1.258E3,5.939E3,2.57E2,9.609E3,3.38E2,2.515E3,1.295E3,3.829E3,2.818E3,2.79E2,9.79E2,2.613E3,3.326E3,6.6E1,1.91E2,5.681E3,3.928E3,2.82E2,5.6E1,2.449E3,6.6E1,8.67E2,4.28E2,3.684E3,1.45E2,2.709E3,1.09E2,1.54E2,1.25E2,1.25E2,8.54E2,1.333E3,1.28E3,1.256E3,2.07E3,8E0,5.8E1,1.35E2,5.6E1,2.735E3,2.946E3,2.521E3,1.407E3,7.9E1,2.03E2,3.6E1,2E1,7.27E2,1.722E3,3.7E1,2.9E1,8.26E2,4.1E1,3.89E2,3.9E1,3.362E3,3.22E2,4E1,1.05E2,1.581E3,1.128E3,1.3E1,9.6E1,8.4E1,7E1,2.6E1,9.9E1,9.7E1,2.8E1,6.02E2,2.52E2,4.96E2,8.37E2,3.6E2,9.2E2,4.86E2,7.7E2,1.5E1,2.055E3,7.1E1,6.4E1,3.4E1,2.2E1,1.667E3,1.068E3,2.103E3,8.43E2,1.493E3,1.028E3,5.57E2,8.5E2,3.8E1,4.1E1,5.6E1,1.47E2,2.4E1,1.2E1,9E0,1.1E1,4.1E2,3.17E2,6.82E2,1.04E3,2.4E1,1.3E1,8E0,2.1E1,2.76E2,5.5E2,8E0,3.3E1,1.76E2,2.13E2,2.9E1,1E1],"tree_param":{"num_deleted":"0","num_feature":"18","num_nodes":"123","size_leaf_vector":"1"}},{"base_weights":[-8.080466E0,-3.599147E3,3.2310654E3,-5.389468E3,-2.1334175E3,1.7536875E3,6.878419E3,-6.2706436E3,-4.0816372E3,-3.1518816E3,-1.0948292E3,1.9750085E3,-4.3160103E3,5.553576E3,9.297951E3,-6.091285E3,-9.984062E3,-3.730939E3,-8.430614E3,4.9188733E2,-3.6246228E3,-9.873429E2,-4.4315264E3,9.761696E2,3.0069717E3,-6.337791E3,-1.6313044E3,5.711782E3,-1.9656768E3,8.199871E3,1.0746959E4,-6.179088E3,-4.4811255E2,-1.1516671E4,-8.969619E3,-4.254509E3,-2.0830818E3,-1.06756875E4,-7.543636E3,-4.0923068E2,5.831442E3,-3.6981426E3,6.8385283E3,-1.3788075E3,-2.5511014E2,-3.0059918E2,-3.660713E3,5.130637E2,1.7188123E3,2.4434856E3,3.9199216E3,-7.337865E3,-3.4744126E3,-5.571458E2,-2.2950696E2,4.731631E3,6.4933774E3,-3.6589492E3,2.2337258E3,8.44518E3,2.561562E3,8.304703E3,1.1249284E4,-2.1496771E2,-1.6899756E2,-1.7393367E2,1.8953423E1,-3.5093103E2,-1.2352531E2,-3.2907385E2,-2.4847919E2,-2.4032466E2,-1.2453407E2,-6.620468E1,1.626474E2,-3.240239E2,-7.193282E1,-2.914387E2,-1.8763377E2,-4.2949566E1,2.3398333E1,1.8414731E2,9.094798E1,-1.5405232E2,-9.449137E1,9.26939E0,2.4590724E2,-5.513874E1,-2.5022663E1,7.63478E1,-1.2928785E1,-9.178662E1,-1.987672E2,4.6468115E0,3.270852E1,6.4947556E1,3.3369446E1,6.752055E1,1.0941451E2,9.864358E1,1.2666931E2,-2.6125998E2,-1.7561891E2,-1.5111679E2,-6.945079E1,-3.5505127E1,6.4150536E1,1.2331853E2,1.772228E2,1.8633565E2,2.3378842E2,-1.3337785E2,-5.470909E1,-5.2909374E0,7.700487E1,2.1691092E2,2.6876746E2,1.3293642E2,-5.108442E1,2.8224637E2,2.0178346E2,3.1196234E2,3.6418683E2],"categories":[],"categories_nodes":[],"categories_segments":[],"categories_sizes":[],"default_left":[0,0,0,0,0,0,0,0,0,0,0,0,0,0,0,0,0,0,0,0,0,0,0,0,0,0,0,0,0,0,0,0,0,0,0,0,0,0,0,0,0,0,0,0,0,0,0,0,0,0,0,0,0,0,0,0,0,0,0,0,0,0,0,0,0,0,0,0,0,0,0,0,0,0,0,0,0,0,0,0,0,0,0,0,0,0,0,0,0,0,0,0,0,0,0,0,0,0,0,0,0,0,0,0,0,0,0,0,0,0,0,0,0,0,0,0,0,0,0,0,0,0,0],"id":10,"left_children":[1,3,5,7,9,11,13,15,17,19,21,23,25,27,29,31,33,35,37,39,41,43,45,47,49,51,53,55,57,59,61,63,65,67,69,71,73,75,77,79,81,83,85,87,89,-1,91,93,95,97,99,101,103,105,-1,107,109,111,113,115,117,119,121,-1,-1,-1,-1,-1,-1,-1,-1,-1,-1,-1,-1,-1,-1,-1,-1,-1,-1,-1,-1,-1,-1,-1,-1,-1,-1,-1,-1,-1,-1,-1,-1,-1,-1,-1,-1,-1,-1,-1,-1,-1,-1,-1,-1,-1,-1,-1,-1,-1,-1,-1,-1,-1,-1,-1,-1,-1,-1,-1,-1],"loss_changes":[3.239625E11,3.4647966E10,7.889201E10,6.825591E9,7.6801556E9,1.4010274E10,1.3478789E10,2.3036068E9,3.622871E9,6.318412E9,1.2860447E9,1.036347E10,1.981696E9,3.2588186E9,2.2858383E9,1.6764273E9,1.4856806E8,1.905623E9,2.739241E8,2.0328685E9,2.5222717E9,9.991731E8,4.457764E8,1.757248E9,2.5348137E9,5.729956E8,1.0237176E9,2.0177715E9,4.134848E8,1.1581727E9,6.917325E8,1.756504E9,3.0984813E8,3.3542144E7,4.9255424E7,6.202593E8,5.1064013E8,2.3813632E7,3.058811E8,4.4125005E8,3.379008E7,2.5245286E9,2.0146816E8,5.667123E8,5.998367E8,0E0,1.579639E8,6.5107155E8,5.2870554E8,7.021486E8,3.464356E8,2.622766E8,8.980544E7,2.3214598E8,0E0,8.4463616E8,4.9618534E8,5.1110784E7,1.410044E7,4.4510822E8,3.0254272E8,1.3356339E8,2.7357184E8,0E0,0E0,0E0,0E0,0E0,0E0,0E0,0E0,0E0,0E0,0E0,0E0,0E0,0E0,0E0,0E0,0E0,0E0,0E0,0E0,0E0,0E0,0E0,0E0,0E0,0E0,0E0,0E0,0E0,0E0,0E0,0E0,0E0,0E0,0E0,0E0,0E0,0E0,0E0,0E0,0E0,0E0,0E0,0E0,0E0,0E0,0E0,0E0,0E0,0E0,0E0,0E0,0E0,0E0,0E0,0E0,0E0,0E0,0E0,0E0],"parents":[2147483647,0,0,1,1,2,2,3,3,4,4,5,5,6,6,7,7,8,8,9,9,10,10,11,11,12,12,13,13,14,14,15,15,16,16,17,17,18,18,19,19,20,20,21,21,22,22,23,23,24,24,25,25,26,26,27,27,28,28,29,29,30,30,31,31,32,32,33,33,34,34,35,35,36,36,37,37,38,38,39,39,40,40,41,41,42,42,43,43,44,44,46,46,47,47,48,48,49,49,50,50,51,51,52,52,53,53,55,55,56,56,57,57,58,58,59,59,60,60,61,61,62,62],"right_children":[2,4,6,8,10,12,14,16,18,20,22,24,26,28,30,32,34,36,38,40,42,44,46,48,50,52,54,56,58,60,62,64,66,68,70,72,74,76,78,80,82,84,86,88,90,-1,92,94,96,98,100,102,104,106,-1,108,110,112,114,116,118,120,122,-1,-1,-1,-1,-1,-1,-1,-1,-1,-1,-1,-1,-1,-1,-1,-1,-1,-1,-1,-1,-1,-1,-1,-1,-1,-1,-1,-1,-1,-1,-1,-1,-1,-1,-1,-1,-1,-1,-1,-1,-1,-1,-1,-1,-1,-1,-1,-1,-1,-1,-1,-1,-1,-1,-1,-1,-1,-1,-1,-1],"split_conditions":[3.799643E4,3.32413E4,4.467334E4,3.186309E4,3.489389E4,1E0,4.884305E4,1E0,1E0,3.3140324E4,1E0,4.092875E4,3.742075E4,1E0,5.16941E4,8E0,2.736637E4,3.481177E4,4.1380884E3,4.141613E4,2.83E1,3.91497E4,3.7437695E3,4.007689E4,4.268225E4,1.82E2,1E0,4.472765E4,1.94E2,1E0,4.5265273E4,2.929494E4,2.498113E4,1.93E2,4.0851255E3,2.597124E4,2.87E1,1E0,2.64858E4,1.57E1,6.9005024E3,3.165402E4,1.76E2,3.662883E4,3.814246E4,-3.0059918E2,1E0,3.959081E4,2.09E2,4.275122E4,4.251632E4,1.77E1,2.985346E4,4.2671E4,-2.2950696E2,4.446545E4,2.83E1,1.7E1,9E0,2.32E1,6.5626885E3,5.7143506E3,2.94E1,-2.1496771E2,-1.6899756E2,-1.7393367E2,1.8953423E1,-3.5093103E2,-1.2352531E2,-3.2907385E2,-2.4847919E2,-2.4032466E2,-1.2453407E2,-6.620468E1,1.626474E2,-3.240239E2,-7.193282E1,-2.914387E2,-1.8763377E2,-4.2949566E1,2.3398333E1,1.8414731E2,9.094798E1,-1.5405232E2,-9.449137E1,9.26939E0,2.4590724E2,-5.513874E1,-2.5022663E1,7.63478E1,-1.2928785E1,-9.178662E1,-1.987672E2,4.6468115E0,3.270852E1,6.4947556E1,3.3369446E1,6.752055E1,1.0941451E2,9.864358E1,1.2666931E2,-2.6125998E2,-1.7561891E2,-1.5111679E2,-6.945079E1,-3.5505127E1,6.4150536E1,1.2331853E2,1.772228E2,1.8633565E2,2.3378842E2,-1.3337785E2,-5.470909E1,-5.2909374E0,7.700487E1,2.1691092E2,2.6876746E2,1.3293642E2,-5.108442E1,2.8224637E2,2.0178346E2,3.1196234E2,3.6418683E2],"split_indices":[13,11,13,13,13,6,13,6,6,16,6,13,11,6,13,0,11,13,17,11,9,11,17,11,11,2,8,11,2,6,16,13,12,2,17,11,9,7,11,9,17,13,2,13,12,0,8,13,2,12,13,9,11,13,0,12,9,0,0,9,17,17,9,0,0,0,0,0,0,0,0,0,0,0,0,0,0,0,0,0,0,0,0,0,0,0,0,0,0,0,0,0,0,0,0,0,0,0,0,0,0,0,0,0,0,0,0,0,0,0,0,0,0,0,0,0,0,0,0,0,0,0,0],"split_type":[0,0,0,0,0,0,0,0,0,0,0,0,0,0,0,0,0,0,0,0,0,0,0,0,0,0,0,0,0,0,0,0,0,0,0,0,0,0,0,0,0,0,0,0,0,0,0,0,0,0,0,0,0,0,0,0,0,0,0,0,0,0,0,0,0,0,0,0,0,0,0,0,0,0,0,0,0,0,0,0,0,0,0,0,0,0,0,0,0,0,0,0,0,0,0,0,0,0,0,0,0,0,0,0,0,0,0,0,0,0,0,0,0,0,0,0,0,0,0,0,0,0,0],"sum_hessian":[2.7849E4,1.3207E4,1.4642E4,5.944E3,7.263E3,1.0422E4,4.22E3,3.549E3,2.395E3,3.666E3,3.597E3,1.0056E4,3.66E2,2.729E3,1.491E3,3.388E3,1.61E2,2.218E3,1.77E2,4.21E2,3.245E3,3.486E3,1.11E2,5.111E3,4.945E3,2.08E2,1.58E2,2.673E3,5.6E1,8.52E2,6.39E2,3.336E3,5.2E1,6E1,1.01E2,1.682E3,5.36E2,4.7E1,1.3E2,3.61E2,6E1,3.223E3,2.2E1,2.271E3,1.215E3,1.2E1,9.9E1,3.149E3,1.962E3,3.06E3,1.885E3,1.53E2,5.5E1,1.35E2,2.3E1,1.189E3,1.484E3,4E1,1.6E1,8.16E2,3.6E1,1.12E2,5.27E2,1.184E3,2.152E3,8E0,4.4E1,5.8E1,2E0,2.2E1,7.9E1,4.3E1,1.639E3,5.28E2,8E0,4.6E1,1E0,4.6E1,8.4E1,1.94E2,1.67E2,5.3E1,7E0,8.88E2,2.335E3,4E0,1.8E1,1.231E3,1.04E3,7.1E1,1.144E3,8.4E1,1.5E1,1.944E3,1.205E3,1.129E3,8.33E2,2.64E3,4.2E2,6.14E2,1.271E3,7.7E1,7.6E1,2.2E1,3.3E1,1.1E2,2.5E1,7.81E2,4.08E2,1.224E3,2.6E2,2.7E1,1.3E1,2E0,1.4E1,2.47E2,5.69E2,2.5E1,1.1E1,6.3E1,4.9E1,2.76E2,2.51E2],"tree_param":{"num_deleted":"0","num_feature":"18","num_nodes":"123","size_leaf_vector":"1"}},{"base_weights":[-2.3609035E1,-3.1344487E3,3.5101304E3,-4.6298066E3,-1.0549396E3,2.2609033E3,7.4590137E3,-5.663644E3,-3.2837712E3,-2.138063E3,-4.3483582E2,1.4571918E3,3.6094155E3,6.4887173E3,9.97072E3,-6.456538E3,-4.846163E3,-2.6115707E2,-3.8249097E3,-1.4355857E3,-3.4530322E3,3.3252783E2,-1.0943442E3,1.5430509E3,-5.457826E3,3.7239663E3,-5.326792E3,4.838782E3,7.1097827E3,9.184414E3,1.1247429E4,-6.108315E3,-7.6938076E3,-9.07484E3,-4.653765E3,2.3810745E3,-3.055615E3,-5.005061E3,-3.2844421E3,-2.1482378E3,-8.1381995E2,-6.6190537E3,-2.720812E3,-5.44989E1,3.7822278E3,-1.977492E3,-5.3030884E2,1.00404785E3,2.458745E3,-3.6518423E3,-6.9919155E3,3.062297E3,4.6941616E3,-6.247587E3,-2.9459236E3,-7.151987E2,5.2032686E3,7.6163096E3,5.755994E3,2.127438E3,9.286152E3,1.1872475E4,9.818785E3,-1.861087E2,1.6907076E1,-2.7536014E2,-2.1295195E2,-2.776615E2,-1.10553185E2,-1.3736568E2,-2.691191E2,3.1901655E1,1.7401309E2,-1.1230353E2,3.6608883E1,-1.0670892E2,-1.7318758E2,-1.01121735E2,8.341714E1,-6.1415653E1,-2.2858673E2,-1.4233974E2,-1.788322E1,-2.5970032E2,-1.26591705E2,-7.784166E1,-2.2333904E2,-1.8445051E1,1.7724257E1,8.602145E1,2.1259798E2,-4.798856E1,-8.6138214E1,1.17476015E1,-3.750854E1,-1.2437882E2,3.310351E1,9.591736E1,4.562839E1,-4.1706543E1,-1.213419E2,-2.3386765E2,-1.4169266E2,1.1068903E2,7.123258E1,1.5193918E2,1.18848526E2,-1.4410594E2,-2.155231E2,-9.2861786E1,-1.2800332E1,-7.01438E1,5.291679E1,1.4725482E2,2.13797E2,1.924311E2,2.4473155E2,1.4670758E2,1.8600734E2,-3.1145935E1,9.540658E1,2.9410202E2,2.3651526E2,1.5589641E2,3.582059E2,1.7897552E2,3.0225146E2],"categories":[],"categories_nodes":[],"categories_segments":[],"categories_sizes":[],"default_left":[0,0,0,0,0,0,0,0,0,0,0,0,0,0,0,0,0,0,0,0,0,0,0,0,0,0,0,0,0,0,0,0,0,0,0,0,0,0,0,0,0,0,0,0,0,0,0,0,0,0,0,0,0,0,0,0,0,0,0,0,0,0,0,0,0,0,0,0,0,0,0,0,0,0,0,0,0,0,0,0,0,0,0,0,0,0,0,0,0,0,0,0,0,0,0,0,0,0,0,0,0,0,0,0,0,0,0,0,0,0,0,0,0,0,0,0,0,0,0,0,0,0,0,0,0,0,0],"id":11,"left_children":[1,3,5,7,9,11,13,15,17,19,21,23,25,27,29,31,33,35,37,39,41,43,45,47,49,51,53,55,57,59,61,63,65,67,69,71,73,75,77,79,81,83,85,87,89,91,93,95,97,99,101,103,105,107,109,111,113,115,117,119,121,123,125,-1,-1,-1,-1,-1,-1,-1,-1,-1,-1,-1,-1,-1,-1,-1,-1,-1,-1,-1,-1,-1,-1,-1,-1,-1,-1,-1,-1,-1,-1,-1,-1,-1,-1,-1,-1,-1,-1,-1,-1,-1,-1,-1,-1,-1,-1,-1,-1,-1,-1,-1,-1,-1,-1,-1,-1,-1,-1,-1,-1,-1,-1,-1,-1],"loss_changes":[3.0467912E11,4.58308E10,6.3994413E10,1.1912823E10,4.1411282E9,1.068007E10,7.5341824E9,3.1110758E9,6.0950774E9,2.0688312E9,1.9857267E9,3.6770017E9,3.7878948E9,2.2732554E9,7.670661E8,1.0120151E9,1.903059E9,4.1937795E9,1.9997532E9,6.4739686E8,1.7925243E9,2.422125E9,1.04999834E9,3.0102344E9,1.8502784E8,2.319106E9,8.463283E7,1.2567931E9,1.07665E9,3.6938138E8,1.7453875E8,1.2263096E9,4.087255E8,6.612019E7,6.9912576E8,1.3094803E9,8.163187E8,1.0813911E9,1.1454689E9,3.61461E8,6.681135E8,6.7725466E8,3.5950182E8,5.904767E8,5.328878E8,2.7302656E8,8.560538E8,1.9724116E9,1.5610255E9,2.7253856E7,3.611648E7,9.250734E8,3.7942477E8,1.0119552E7,4.327512E6,1.610363E8,2.9441126E8,7.194542E8,1.4236774E8,3.3296196E7,3.1004672E8,3.831808E7,4.356813E7,0E0,0E0,0E0,0E0,0E0,0E0,0E0,0E0,0E0,0E0,0E0,0E0,0E0,0E0,0E0,0E0,0E0,0E0,0E0,0E0,0E0,0E0,0E0,0E0,0E0,0E0,0E0,0E0,0E0,0E0,0E0,0E0,0E0,0E0,0E0,0E0,0E0,0E0,0E0,0E0,0E0,0E0,0E0,0E0,0E0,0E0,0E0,0E0,0E0,0E0,0E0,0E0,0E0,0E0,0E0,0E0,0E0,0E0,0E0,0E0,0E0,0E0,0E0,0E0],"parents":[2147483647,0,0,1,1,2,2,3,3,4,4,5,5,6,6,7,7,8,8,9,9,10,10,11,11,12,12,13,13,14,14,15,15,16,16,17,17,18,18,19,19,20,20,21,21,22,22,23,23,24,24,25,25,26,26,27,27,28,28,29,29,30,30,31,31,32,32,33,33,34,34,35,35,36,36,37,37,38,38,39,39,40,40,41,41,42,42,43,43,44,44,45,45,46,46,47,47,48,48,49,49,50,50,51,51,52,52,53,53,54,54,55,55,56,56,57,57,58,58,59,59,60,60,61,61,62,62],"right_children":[2,4,6,8,10,12,14,16,18,20,22,24,26,28,30,32,34,36,38,40,42,44,46,48,50,52,54,56,58,60,62,64,66,68,70,72,74,76,78,80,82,84,86,88,90,92,94,96,98,100,102,104,106,108,110,112,114,116,118,120,122,124,126,-1,-1,-1,-1,-1,-1,-1,-1,-1,-1,-1,-1,-1,-1,-1,-1,-1,-1,-1,-1,-1,-1,-1,-1,-1,-1,-1,-1,-1,-1,-1,-1,-1,-1,-1,-1,-1,-1,-1,-1,-1,-1,-1,-1,-1,-1,-1,-1,-1,-1,-1,-1,-1,-1,-1,-1,-1,-1,-1,-1,-1,-1,-1,-1],"split_conditions":[3.891737E4,3.456027E4,4.604055E4,3.276633E4,3.621514E4,4.251632E4,5.075639E4,3.083897E4,3.4128508E4,3E0,5E0,1E0,1E0,4.1016297E4,5.349587E4,6E0,2.597124E4,5E0,3.165402E4,3.662883E4,3.3989145E4,4.067691E4,3.977817E4,4.101118E4,2.9298088E4,4.368288E4,1.8E1,3.198753E4,2.37E2,3.696364E4,2.3E2,8E0,3.014181E4,1.96E2,1E0,3.943743E4,4.014333E4,6E0,6.5626885E3,1E0,3.690416E3,1.14E2,1E0,3.799976E4,4.388091E4,6E0,6E0,2.841161E4,5E0,3.2763361E4,2E1,2E0,5E0,3.0617973E4,2E0,3E0,4.743058E4,2.26E1,5.4472896E3,1.72E2,2.37E2,1.97E2,4.5265273E4,-1.861087E2,1.6907076E1,-2.7536014E2,-2.1295195E2,-2.776615E2,-1.10553185E2,-1.3736568E2,-2.691191E2,3.1901655E1,1.7401309E2,-1.1230353E2,3.6608883E1,-1.0670892E2,-1.7318758E2,-1.01121735E2,8.341714E1,-6.1415653E1,-2.2858673E2,-1.4233974E2,-1.788322E1,-2.5970032E2,-1.26591705E2,-7.784166E1,-2.2333904E2,-1.8445051E1,1.7724257E1,8.602145E1,2.1259798E2,-4.798856E1,-8.6138214E1,1.17476015E1,-3.750854E1,-1.2437882E2,3.310351E1,9.591736E1,4.562839E1,-4.1706543E1,-1.213419E2,-2.3386765E2,-1.4169266E2,1.1068903E2,7.123258E1,1.5193918E2,1.18848526E2,-1.4410594E2,-2.155231E2,-9.2861786E1,-1.2800332E1,-7.01438E1,5.291679E1,1.4725482E2,2.13797E2,1.924311E2,2.4473155E2,1.4670758E2,1.8600734E2,-3.1145935E1,9.540658E1,2.9410202E2,2.3651526E2,1.5589641E2,3.582059E2,1.7897552E2,3.0225146E2],"split_indices":[13,13,13,11,11,13,13,13,16,1,1,8,8,16,13,1,11,1,13,13,14,11,11,11,14,11,0,14,2,11,2,0,11,2,8,11,11,1,17,8,17,2,8,11,11,1,1,11,1,16,0,1,1,14,1,1,11,9,17,2,2,2,16,0,0,0,0,0,0,0,0,0,0,0,0,0,0,0,0,0,0,0,0,0,0,0,0,0,0,0,0,0,0,0,0,0,0,0,0,0,0,0,0,0,0,0,0,0,0,0,0,0,0,0,0,0,0,0,0,0,0,0,0,0,0,0,0],"split_type":[0,0,0,0,0,0,0,0,0,0,0,0,0,0,0,0,0,0,0,0,0,0,0,0,0,0,0,0,0,0,0,0,0,0,0,0,0,0,0,0,0,0,0,0,0,0,0,0,0,0,0,0,0,0,0,0,0,0,0,0,0,0,0,0,0,0,0,0,0,0,0,0,0,0,0,0,0,0,0,0,0,0,0,0,0,0,0,0,0,0,0,0,0,0,0,0,0,0,0,0,0,0,0,0,0,0,0,0,0,0,0,0,0,0,0,0,0,0,0,0,0,0,0,0,0,0,0],"sum_hessian":[2.7714E4,1.4739E4,1.2975E4,8.573E3,6.166E3,9.858E3,3.117E3,4.847E3,3.726E3,2.244E3,3.922E3,6.178E3,3.68E3,2.251E3,8.66E2,2.457E3,2.39E3,5.66E2,3.16E3,1.464E3,7.8E2,1.813E3,2.109E3,6.103E3,7.5E1,3.634E3,4.6E1,6.18E2,1.633E3,5.41E2,3.25E2,1.922E3,5.35E2,1.02E2,2.288E3,2.91E2,2.75E2,9.9E2,2.17E3,6.81E2,7.83E2,1.45E2,6.35E2,1.631E3,1.82E2,8.21E2,1.288E3,3.843E3,2.26E3,3.6E1,3.9E1,2.163E3,1.471E3,3.2E1,1.4E1,3.8E1,5.8E2,1.185E3,4.48E2,8E0,5.33E2,2.21E2,1.04E2,1.895E3,2.7E1,1.49E2,3.86E2,9.8E1,4E0,2.251E3,3.7E1,2.11E2,8E1,2.37E2,3.8E1,3.45E2,6.45E2,2.14E3,3E1,6.7E2,1.1E1,4E1,7.43E2,7.7E1,6.8E1,6.2E2,1.5E1,8.73E2,7.58E2,1.44E2,3.8E1,5.79E2,2.42E2,5.65E2,7.23E2,7.2E1,3.771E3,1.263E3,9.97E2,6E0,3E1,2.7E1,1.2E1,1.129E3,1.034E3,9.73E2,4.98E2,1.5E1,1.7E1,1.3E1,1E0,2.3E1,1.5E1,5.06E2,7.4E1,3.72E2,8.13E2,1.56E2,2.92E2,2E0,6E0,3.85E2,1.48E2,3E0,2.18E2,8E0,9.6E1],"tree_param":{"num_deleted":"0","num_feature":"18","num_nodes":"127","size_leaf_vector":"1"}},{"base_weights":[3.3126156E0,-2.2732458E3,3.3058606E3,-4.1577197E3,-1.2971014E2,4.785211E3,4.7856906E2,-5.238038E3,-2.1650842E3,7.699841E2,-3.5875647E3,3.40235E3,7.795042E3,-8.674385E2,3.0308506E3,-5.0463438E3,-8.932724E3,-3.0869094E3,-1.0733594E3,1.1311144E3,-5.3535317E3,-2.3418142E3,-4.6524204E3,2.8804438E3,6.567247E3,6.8069307E3,1.0192635E4,5.752468E2,-2.3470442E3,4.6209497E3,1.2334738E3,-4.7999673E3,-6.8805073E3,-1.0806276E4,-7.8645117E3,-2.7355151E3,-4.7651094E3,-7.091763E2,-2.8401782E3,4.9139056E2,3.6257842E3,-3.1274362E2,-4.4494644E3,-6.7468374E3,-1.9420382E3,-7.510043E3,-3.9631863E3,2.229375E3,3.849526E3,5.5337456E3,8.485154E3,6.4916304E3,9.721813E3,9.308293E3,3.436156E2,-1.6980107E2,1.3594043E3,-3.1221846E3,-6.6719745E2,3.5128582E3,6.4865E3,-6.0116753E1,3.116654E3,-1.9905322E2,-1.3378128E2,-2.4007693E2,-1.854815E2,-3.6394208E2,-2.796368E2,-3.0911984E2,-2.1381427E2,-1.3751959E2,-7.030415E1,-1.2993558E2,-2.1248514E2,-7.895791E1,-8.594137E0,-6.742327E1,-1.488817E2,-2.3470073E0,3.6851204E1,6.359805E1,1.4018198E2,-2.3435347E2,-1.00017456E2,-2.620937E2,-1.5057666E2,-8.871706E1,-4.5513252E1,-2.5209782E2,-2.089756E2,-1.487737E2,-9.751375E1,5.7436035E1,1.2263329E2,1.0639935E2,1.3322017E2,1.7748958E2,1.170843E2,2.742361E2,1.8241199E2,-8.353773E1,1.9610057E2,2.970806E2,1.2983763E2,3.5210666E2,2.6901794E2,-1.2961635E-1,-5.1866108E1,4.308694E1,-1.7148915E2,1.2819805E1,-1.0496963E2,-4.012333E1,1.2494807E1,1.075035E2,-1.5867941E2,-3.7301502E1,2.0665805E2,-3.1055874E1,4.648575E1,2.1978611E1,1.1357249E2],"categories":[],"categories_nodes":[],"categories_segments":[],"categories_sizes":[],"default_left":[0,0,0,0,0,0,0,0,0,0,0,0,0,0,0,0,0,0,0,0,0,0,0,0,0,0,0,0,0,0,0,0,0,0,0,0,0,0,0,0,0,0,0,0,0,0,0,0,0,0,0,0,0,0,0,0,0,0,0,0,0,0,0,0,0,0,0,0,0,0,0,0,0,0,0,0,0,0,0,0,0,0,0,0,0,0,0,0,0,0,0,0,0,0,0,0,0,0,0,0,0,0,0,0,0,0,0,0,0,0,0,0,0,0,0,0,0,0,0,0,0,0,0],"id":12,"left_children":[1,3,5,7,9,11,13,15,17,19,21,23,25,27,29,31,33,35,37,39,41,43,45,47,49,51,53,55,57,59,61,63,65,67,69,71,73,75,77,79,81,-1,83,85,87,89,91,93,95,97,99,101,103,105,-1,107,109,111,113,115,117,119,121,-1,-1,-1,-1,-1,-1,-1,-1,-1,-1,-1,-1,-1,-1,-1,-1,-1,-1,-1,-1,-1,-1,-1,-1,-1,-1,-1,-1,-1,-1,-1,-1,-1,-1,-1,-1,-1,-1,-1,-1,-1,-1,-1,-1,-1,-1,-1,-1,-1,-1,-1,-1,-1,-1,-1,-1,-1,-1,-1,-1],"loss_changes":[2.0993748E11,6.6767323E10,4.765374E10,1.8923635E10,2.4063328E10,3.1106564E10,1.3452182E10,3.9940588E9,3.1104256E9,1.3579548E10,2.1075968E9,8.449753E9,5.507449E9,5.4744786E9,3.8583265E9,2.4180654E9,4.75392E8,9.7590784E8,9.103917E8,9.24965E9,1.5216026E9,1.2865324E9,1.6640676E9,2.7694408E9,1.3901107E9,1.4717256E9,6.573998E8,7.5915194E8,1.6463969E9,1.4593956E9,1.5495244E9,2.9612032E9,4.516188E8,8.173978E7,2.539438E8,9.95839E8,2.5997517E8,9.5586214E8,2.9330893E8,1.9374884E9,1.855148E9,0E0,1.06919885E9,1.6582451E8,2.8799437E8,2.215424E7,4.772137E8,1.5344978E9,3.008041E8,2.7266355E8,3.419812E8,6.492938E8,1.1421594E8,2.3266918E8,0E0,1.720756E8,3.5231258E8,1.1597409E9,2.918196E8,2.998103E8,8.353485E8,5.948857E8,4.1036928E8,0E0,0E0,0E0,0E0,0E0,0E0,0E0,0E0,0E0,0E0,0E0,0E0,0E0,0E0,0E0,0E0,0E0,0E0,0E0,0E0,0E0,0E0,0E0,0E0,0E0,0E0,0E0,0E0,0E0,0E0,0E0,0E0,0E0,0E0,0E0,0E0,0E0,0E0,0E0,0E0,0E0,0E0,0E0,0E0,0E0,0E0,0E0,0E0,0E0,0E0,0E0,0E0,0E0,0E0,0E0,0E0,0E0,0E0,0E0,0E0],"parents":[2147483647,0,0,1,1,2,2,3,3,4,4,5,5,6,6,7,7,8,8,9,9,10,10,11,11,12,12,13,13,14,14,15,15,16,16,17,17,18,18,19,19,20,20,21,21,22,22,23,23,24,24,25,25,26,26,27,27,28,28,29,29,30,30,31,31,32,32,33,33,34,34,35,35,36,36,37,37,38,38,39,39,40,40,42,42,43,43,44,44,45,45,46,46,47,47,48,48,49,49,50,50,51,51,52,52,53,53,55,55,56,56,57,57,58,58,59,59,60,60,61,61,62,62],"right_children":[2,4,6,8,10,12,14,16,18,20,22,24,26,28,30,32,34,36,38,40,42,44,46,48,50,52,54,56,58,60,62,64,66,68,70,72,74,76,78,80,82,-1,84,86,88,90,92,94,96,98,100,102,104,106,-1,108,110,112,114,116,118,120,122,-1,-1,-1,-1,-1,-1,-1,-1,-1,-1,-1,-1,-1,-1,-1,-1,-1,-1,-1,-1,-1,-1,-1,-1,-1,-1,-1,-1,-1,-1,-1,-1,-1,-1,-1,-1,-1,-1,-1,-1,-1,-1,-1,-1,-1,-1,-1,-1,-1,-1,-1,-1,-1,-1,-1,-1,-1,-1,-1,-1],"split_conditions":[3.983612E4,8E0,5E0,3.339573E4,5E0,4.535339E4,4.535339E4,1E0,3.562236E4,1E0,6E0,4.508799E4,5.003384E4,6E0,6E0,6E0,2.736637E4,6E0,6E0,4.032975E4,4.0276763E3,3.380029E4,1.1E1,4.229824E4,2.46E1,5.037985E4,5.285021E4,4.208248E4,1.8E1,4.940206E4,4.6073266E4,1E0,3.119252E4,1.59E2,4.0276763E3,1E0,7E0,1E0,7E0,3.785939E4,1E0,-3.1274362E2,2.841161E4,2.902815E4,3.758223E4,3.703317E4,1.8E1,4.291132E4,4.397788E4,3E0,2.41E2,3E0,1E0,2E0,3.436156E2,1E0,1E0,8E0,4.268225E4,1E0,1.68E2,1.7E1,1.1E1,-1.9905322E2,-1.3378128E2,-2.4007693E2,-1.854815E2,-3.6394208E2,-2.796368E2,-3.0911984E2,-2.1381427E2,-1.3751959E2,-7.030415E1,-1.2993558E2,-2.1248514E2,-7.895791E1,-8.594137E0,-6.742327E1,-1.488817E2,-2.3470073E0,3.6851204E1,6.359805E1,1.4018198E2,-2.3435347E2,-1.00017456E2,-2.620937E2,-1.5057666E2,-8.871706E1,-4.5513252E1,-2.5209782E2,-2.089756E2,-1.487737E2,-9.751375E1,5.7436035E1,1.2263329E2,1.0639935E2,1.3322017E2,1.7748958E2,1.170843E2,2.742361E2,1.8241199E2,-8.353773E1,1.9610057E2,2.970806E2,1.2983763E2,3.5210666E2,2.6901794E2,-1.2961635E-1,-5.1866108E1,4.308694E1,-1.7148915E2,1.2819805E1,-1.0496963E2,-4.012333E1,1.2494807E1,1.075035E2,-1.5867941E2,-3.7301502E1,2.0665805E2,-3.1055874E1,4.648575E1,2.1978611E1,1.1357249E2],"split_indices":[11,0,1,11,1,11,11,6,11,6,1,12,11,1,1,1,11,1,1,12,17,11,0,11,9,12,11,11,0,11,14,1,11,2,17,1,0,1,0,12,1,0,11,11,11,11,0,12,11,1,2,2,6,1,0,7,8,0,11,8,2,0,0,0,0,0,0,0,0,0,0,0,0,0,0,0,0,0,0,0,0,0,0,0,0,0,0,0,0,0,0,0,0,0,0,0,0,0,0,0,0,0,0,0,0,0,0,0,0,0,0,0,0,0,0,0,0,0,0,0,0,0,0],"split_type":[0,0,0,0,0,0,0,0,0,0,0,0,0,0,0,0,0,0,0,0,0,0,0,0,0,0,0,0,0,0,0,0,0,0,0,0,0,0,0,0,0,0,0,0,0,0,0,0,0,0,0,0,0,0,0,0,0,0,0,0,0,0,0,0,0,0,0,0,0,0,0,0,0,0,0,0,0,0,0,0,0,0,0,0,0,0,0,0,0,0,0,0,0,0,0,0,0,0,0,0,0,0,0,0,0,0,0,0,0,0,0,0,0,0,0,0,0,0,0,0,0,0,0],"sum_hessian":[2.7921E4,1.6528E4,1.1393E4,8.795E3,7.733E3,7.479E3,3.914E3,5.702E3,3.093E3,6.137E3,1.596E3,5.126E3,2.353E3,2.563E3,1.351E3,5.423E3,2.79E2,1.676E3,1.417E3,5.796E3,3.41E2,7.37E2,8.59E2,4.402E3,7.24E2,1.669E3,6.84E2,1.298E3,1.265E3,7.16E2,6.35E2,4.784E3,6.39E2,9.8E1,1.81E2,1.388E3,2.88E2,1.176E3,2.41E2,4.614E3,1.182E3,5E1,2.91E2,6E1,6.77E2,1.65E2,6.94E2,2.635E3,1.767E3,4.73E2,2.51E2,1.509E3,1.6E2,4.07E2,2.77E2,6.66E2,6.32E2,8.65E2,4E2,4.51E2,2.65E2,3.77E2,2.58E2,7.46E2,4.038E3,2.41E2,3.98E2,4.8E1,5E1,3.9E1,1.42E2,2.41E2,1.147E3,2.45E2,4.3E1,2.11E2,9.65E2,1.9E2,5.1E1,2.603E3,2.011E3,4.86E2,6.96E2,7.1E1,2.2E2,2.6E1,3.4E1,1.98E2,4.79E2,5.7E1,1.08E2,2.87E2,4.07E2,2.255E3,3.8E2,1.173E3,5.94E2,3.81E2,9.2E1,1.95E2,5.6E1,7E0,1.502E3,1.54E2,6E0,4.6E1,3.61E2,6.03E2,6.3E1,6.26E2,6E0,8.3E1,7.82E2,2.47E2,1.53E2,4.48E2,3E0,1.3E1,2.52E2,2.35E2,1.42E2,5.7E1,2.01E2],"tree_param":{"num_deleted":"0","num_feature":"18","num_nodes":"123","size_leaf_vector":"1"}},{"base_weights":[1.971708E1,-2.936665E3,3.3371155E3,-4.3429517E3,-9.898292E2,2.1814326E3,7.1142686E3,-5.314072E3,-3.034145E3,-7.9109894E2,-5.566053E3,2.3790254E3,-3.8553943E3,6.188559E3,9.430988E3,-5.1224556E3,-8.848867E3,3.3453748E2,-3.5087122E3,-1.5540328E3,-1.0239137E2,-7.1845503E3,-3.337839E3,1.5900187E3,3.6034927E3,-5.708469E3,-1.4146609E3,6.3299385E3,-1.8076094E3,7.773353E3,9.9988E3,-6.194214E3,-4.4676357E3,-1.0723399E4,-8.1080127E3,2.2522183E3,-2.217505E3,-2.6603318E3,-4.2798984E3,-2.1862927E3,-1.0724314E3,-3.7715448E2,7.1746124E2,-8.6051875E3,-4.5522334E3,-2.4983325E3,-5.3966357E3,1.1484336E3,2.339828E3,3.0429053E3,4.5255703E3,-6.711737E3,-3.2246406E3,-3.3930832E2,-2.1354474E2,5.5717686E3,7.43873E3,-2.9585999E3,1.826123E3,8.456379E3,5.358525E3,8.905563E3,1.0793986E4,-1.8933733E2,-6.9774075E0,-1.4805347E2,-1.1789158E2,-3.2999826E2,-1.8097409E2,-3.0619186E2,-2.2003778E2,3.0878426E1,1.6565926E2,-1.3246141E2,-1.8088867E1,-9.447253E1,9.252946E1,-1.725684E2,-1.11489815E2,-5.150388E1,-8.397543E1,-2.9361072E0,-4.661084E1,-5.757927E0,-3.9858032E1,9.01928E1,5.6183934E0,-2.7045663E2,-1.1056184E2,-2.6794825E1,-1.8208174E2,-6.0173893E1,-2.00413E2,-9.687081E1,-2.0348221E2,4.6078457E1,1.3151763E1,9.2175644E1,4.2720093E1,1.1172948E2,7.1007935E1,1.4933469E2,1.1118225E2,-2.8102835E2,-1.7517392E2,-1.3879837E2,-4.9539387E1,-2.6465078E1,1.3588434E2,1.532535E2,2.0045929E2,2.2594508E2,9.921972E1,-1.0602522E2,-3.6687225E1,1.5024023E0,7.74039E1,2.5761252E2,1.2222132E2,1.7551173E2,6.911399E1,2.722343E2,1.7305519E2,3.2745157E2,1.7518642E2],"categories":[],"categories_nodes":[],"categories_segments":[],"categories_sizes":[],"default_left":[0,0,0,0,0,0,0,0,0,0,0,0,0,0,0,0,0,0,0,0,0,0,0,0,0,0,0,0,0,0,0,0,0,0,0,0,0,0,0,0,0,0,0,0,0,0,0,0,0,0,0,0,0,0,0,0,0,0,0,0,0,0,0,0,0,0,0,0,0,0,0,0,0,0,0,0,0,0,0,0,0,0,0,0,0,0,0,0,0,0,0,0,0,0,0,0,0,0,0,0,0,0,0,0,0,0,0,0,0,0,0,0,0,0,0,0,0,0,0,0,0,0,0,0,0],"id":13,"left_children":[1,3,5,7,9,11,13,15,17,19,21,23,25,27,29,31,33,35,37,39,41,43,45,47,49,51,53,55,57,59,61,63,65,67,69,71,73,75,77,79,81,83,85,87,89,91,93,95,97,99,101,103,105,107,-1,109,111,113,115,117,119,121,123,-1,-1,-1,-1,-1,-1,-1,-1,-1,-1,-1,-1,-1,-1,-1,-1,-1,-1,-1,-1,-1,-1,-1,-1,-1,-1,-1,-1,-1,-1,-1,-1,-1,-1,-1,-1,-1,-1,-1,-1,-1,-1,-1,-1,-1,-1,-1,-1,-1,-1,-1,-1,-1,-1,-1,-1,-1,-1,-1,-1,-1,-1],"loss_changes":[2.7320748E11,4.0323637E10,5.7286345E10,1.0853548E10,5.614991E9,1.2000727E10,6.536315E9,3.2789627E9,5.828313E9,3.1120125E9,9.028531E8,9.399382E9,1.4347172E9,2.498519E9,7.467827E8,3.2413532E9,2.61632E8,2.2121894E9,2.0789699E9,8.5329254E8,7.0174656E8,5.1428352E8,1.7663846E8,1.9581133E9,1.9577037E9,4.2939955E8,8.5010944E8,1.776042E9,1.6851603E8,3.3074688E8,4.680663E8,1.2292628E9,7.085998E8,2.1855232E7,2.2375936E8,1.0259832E9,6.8575904E8,4.2886646E9,1.3660365E9,3.4452173E8,7.488736E8,4.1089034E8,9.484464E8,1.5841638E8,2.9435418E8,1.5138723E8,7.123891E7,1.02536704E9,1.4678405E9,1.0851471E9,5.1524403E8,2.419456E8,1.114711E8,3.1587856E8,0E0,6.2838374E8,3.104604E8,2.5648624E7,1.3262274E7,6.5828864E7,6.6155136E7,9.549414E7,1.5879373E8,0E0,0E0,0E0,0E0,0E0,0E0,0E0,0E0,0E0,0E0,0E0,0E0,0E0,0E0,0E0,0E0,0E0,0E0,0E0,0E0,0E0,0E0,0E0,0E0,0E0,0E0,0E0,0E0,0E0,0E0,0E0,0E0,0E0,0E0,0E0,0E0,0E0,0E0,0E0,0E0,0E0,0E0,0E0,0E0,0E0,0E0,0E0,0E0,0E0,0E0,0E0,0E0,0E0,0E0,0E0,0E0,0E0,0E0,0E0,0E0,0E0,0E0],"parents":[2147483647,0,0,1,1,2,2,3,3,4,4,5,5,6,6,7,7,8,8,9,9,10,10,11,11,12,12,13,13,14,14,15,15,16,16,17,17,18,18,19,19,20,20,21,21,22,22,23,23,24,24,25,25,26,26,27,27,28,28,29,29,30,30,31,31,32,32,33,33,34,34,35,35,36,36,37,37,38,38,39,39,40,40,41,41,42,42,43,43,44,44,45,45,46,46,47,47,48,48,49,49,50,50,51,51,52,52,53,53,55,55,56,56,57,57,58,58,59,59,60,60,61,61,62,62],"right_children":[2,4,6,8,10,12,14,16,18,20,22,24,26,28,30,32,34,36,38,40,42,44,46,48,50,52,54,56,58,60,62,64,66,68,70,72,74,76,78,80,82,84,86,88,90,92,94,96,98,100,102,104,106,108,-1,110,112,114,116,118,120,122,124,-1,-1,-1,-1,-1,-1,-1,-1,-1,-1,-1,-1,-1,-1,-1,-1,-1,-1,-1,-1,-1,-1,-1,-1,-1,-1,-1,-1,-1,-1,-1,-1,-1,-1,-1,-1,-1,-1,-1,-1,-1,-1,-1,-1,-1,-1,-1,-1,-1,-1,-1,-1,-1,-1,-1,-1,-1,-1,-1,-1,-1,-1],"split_conditions":[3.891737E4,3.456027E4,4.617787E4,3.284826E4,1E0,1E0,5.075639E4,1E0,3.369688E4,3.688056E4,3.552934E4,4.244507E4,3.799976E4,1E0,4.536056E4,3.004772E4,4.199727E3,5E0,6E0,3.587281E4,4.044198E4,1.65E1,6E0,4.101118E4,4.397788E4,3E0,1E0,2.5E1,3E0,5.929142E3,2.77E1,8E0,3.193151E4,3.179901E4,2.498113E4,3.965734E4,3.785983E4,3.799976E4,3.09367E4,3E0,5E0,5E0,5E0,3E0,1E0,1E0,3.672302E4,3E0,5E0,2E0,5E0,2.023E3,3.093905E4,4.671264E4,-2.1354474E2,4.759279E4,1E0,1.8E1,3.348009E4,1E0,6.685078E3,5E0,1E0,-1.8933733E2,-6.9774075E0,-1.4805347E2,-1.1789158E2,-3.2999826E2,-1.8097409E2,-3.0619186E2,-2.2003778E2,3.0878426E1,1.6565926E2,-1.3246141E2,-1.8088867E1,-9.447253E1,9.252946E1,-1.725684E2,-1.11489815E2,-5.150388E1,-8.397543E1,-2.9361072E0,-4.661084E1,-5.757927E0,-3.9858032E1,9.01928E1,5.6183934E0,-2.7045663E2,-1.1056184E2,-2.6794825E1,-1.8208174E2,-6.0173893E1,-2.00413E2,-9.687081E1,-2.0348221E2,4.6078457E1,1.3151763E1,9.2175644E1,4.2720093E1,1.1172948E2,7.1007935E1,1.4933469E2,1.1118225E2,-2.8102835E2,-1.7517392E2,-1.3879837E2,-4.9539387E1,-2.6465078E1,1.3588434E2,1.532535E2,2.0045929E2,2.2594508E2,9.921972E1,-1.0602522E2,-3.6687225E1,1.5024023E0,7.74039E1,2.5761252E2,1.2222132E2,1.7551173E2,6.911399E1,2.722343E2,1.7305519E2,3.2745157E2,1.7518642E2],"split_indices":[13,13,13,11,6,6,13,6,16,13,11,13,11,8,16,13,17,1,1,11,11,9,1,11,11,4,8,9,1,17,9,0,13,11,11,11,11,11,13,1,1,1,1,4,8,8,16,1,1,1,1,5,11,11,0,11,6,0,11,6,17,1,6,0,0,0,0,0,0,0,0,0,0,0,0,0,0,0,0,0,0,0,0,0,0,0,0,0,0,0,0,0,0,0,0,0,0,0,0,0,0,0,0,0,0,0,0,0,0,0,0,0,0,0,0,0,0,0,0,0,0,0,0,0,0],"split_type":[0,0,0,0,0,0,0,0,0,0,0,0,0,0,0,0,0,0,0,0,0,0,0,0,0,0,0,0,0,0,0,0,0,0,0,0,0,0,0,0,0,0,0,0,0,0,0,0,0,0,0,0,0,0,0,0,0,0,0,0,0,0,0,0,0,0,0,0,0,0,0,0,0,0,0,0,0,0,0,0,0,0,0,0,0,0,0,0,0,0,0,0,0,0,0,0,0,0,0,0,0,0,0,0,0,0,0,0,0,0,0,0,0,0,0,0,0,0,0,0,0,0,0,0,0],"sum_hessian":[2.7855E4,1.4729E4,1.3126E4,8.551E3,6.178E3,1.0052E4,3.074E3,4.907E3,3.644E3,5.922E3,2.56E2,9.734E3,3.18E2,2.199E3,8.75E2,4.657E3,2.5E2,4.5E2,3.194E3,2.809E3,3.113E3,1.47E2,1.09E2,5.921E3,3.813E3,1.8E2,1.38E2,2.161E3,3.8E1,2.27E2,6.48E2,1.763E3,2.894E3,6.7E1,1.83E2,2.57E2,1.93E2,1.523E3,1.671E3,1.213E3,1.596E3,2.332E3,7.81E2,9.4E1,5.3E1,7.9E1,3E1,3.728E3,2.193E3,2.374E3,1.439E3,1.27E2,5.3E1,1.17E2,2.1E1,1.287E3,8.74E2,2.9E1,9E0,1.75E2,5.2E1,2.78E2,3.7E2,1.729E3,3.4E1,1.544E3,1.35E3,6.2E1,5E0,4.6E1,1.37E2,1.88E2,6.9E1,8.1E1,1.12E2,1.404E3,1.19E2,4.6E2,1.211E3,6.89E2,5.24E2,5.28E2,1.068E3,1.953E3,3.79E2,1.46E2,6.35E2,8.6E1,8E0,1.6E1,3.7E1,7.2E1,7E0,1.3E1,1.7E1,2.411E3,1.317E3,1.217E3,9.76E2,1.18E3,1.194E3,9.24E2,5.15E2,2.9E1,9.8E1,2.7E1,2.6E1,1.06E2,1.1E1,9.12E2,3.75E2,8.54E2,2E1,2.1E1,8E0,3E0,6E0,1.69E2,6E0,4.4E1,8E0,2.62E2,1.6E1,3.6E2,1E1],"tree_param":{"num_deleted":"0","num_feature":"18","num_nodes":"125","size_leaf_vector":"1"}},{"base_weights":[-1.1709715E1,-3.198311E3,2.8403123E3,-4.7565625E3,-1.829933E3,1.6075931E3,6.306463E3,-5.572899E3,-3.5857441E3,-1.01405554E3,-3.3188625E3,1.8138256E3,-4.0591113E3,5.090289E3,8.228679E3,-5.407961E3,-8.907768E3,-3.2736943E3,-7.638096E3,-1.3854556E3,3.1125647E3,-4.7156343E3,-2.4270781E3,8.416257E2,2.7277534E3,-5.8175166E3,-1.4908494E3,5.2398657E3,-1.5645627E3,7.2902354E3,9.488625E3,-5.487394E3,-4.6597137E2,-1.0340544E4,-7.7496006E3,-3.619416E3,-1.2759482E3,-9.283903E3,-6.902702E3,-2.230127E3,-4.036605E2,